{"learner":{"attributes":{"scikit_learn":"{\"_estimator_type\": \"regressor\"}"},"feature_names":["Origin_enc","Dest_enc"],"feature_types":["int","int"],"gradient_booster":{"model":{"gbtree_model_param":{"num_parallel_tree":"1","num_trees":"100"},"iteration_indptr":[0,1,2,3,4,5,6,7,8,9,10,11,12,13,14,15,16,17,18,19,20,21,22,23,24,25,26,27,28,29,30,31,32,33,34,35,36,37,38,39,40,41,42,43,44,45,46,47,48,49,50,51,52,53,54,55,56,57,58,59,60,61,62,63,64,65,66,67,68,69,70,71,72,73,74,75,76,77,78,79,80,81,82,83,84,85,86,87,88,89,90,91,92,93,94,95,96,97,98,99,100],"tree_info":[0,0,0,0,0,0,0,0,0,0,0,0,0,0,0,0,0,0,0,0,0,0,0,0,0,0,0,0,0,0,0,0,0,0,0,0,0,0,0,0,0,0,0,0,0,0,0,0,0,0,0,0,0,0,0,0,0,0,0,0,0,0,0,0,0,0,0,0,0,0,0,0,0,0,0,0,0,0,0,0,0,0,0,0,0,0,0,0,0,0,0,0,0,0,0,0,0,0,0,0],"trees":[{"base_weights":[2.266576E-6,-1.9000626E1,5.9021316E0,-3.2550327E1,-7.396089E0,-4.7102995E0,1.1507724E1,-2.6409952E1,-4.193354E1,2.4367237E1,-1.1688028E1,-9.674564E0,1.2246733E1,2.2282251E1,3.4664152E0,-3.689496E1,-1.8070906E1,-5.0595806E1,-3.3889317E1,-8.444769E0,4.430985E1,-1.939716E1,1.0117573E1,-7.5771427E0,-3.7557255E1,3.3778408E1,-2.5435926E1,5.3791405E1,2.0087606E1,9.171258E0,-4.661537E0,-3.585977E1,-2.1058357E1,1.3937848E1,-2.3130564E1,-7.382402E1,-4.6012123E1,-2.816493E1,-4.7267067E1,6.2765133E1,-2.771285E1,-4.373552E1,5.0993713E1,-1.3873213E1,-2.5499035E1,4.236879E1,-2.8435867E1,-1.0011247E1,4.3429863E1,-4.7204163E1,-1.6535805E1,5.4709167E0,4.9908596E1,-1.7017324E1,-4.2425377E1,4.1730507E1,1.06086845E2,5.735827E0,2.880588E1,7.602214E0,6.434425E1,6.1964135E0,-1.0759495E1,-1.086827E1,1.5902484E1,-1.5567021E1,5.5053434E0,-9.790505E0,-3.7264142E0,-2.5658941E1,-1.9877335E1,-1.2378619E1,-1.6529486E1,-9.323012E0,-4.8655233E-1,-1.7643328E1,-9.375136E0,9.33795E0,3.1296854E1,-1.2116391E1,-5.710846E0,-1.5537021E1,-1.0013632E1,9.531317E0,2.066444E1,-7.13492E0,-1.596138E0,-8.77965E0,-4.5362053E0,-1.1032521E1,1.411602E1,-5.594566E0,-1.476389E1,-5.0134535E0,-1.2454071E0,1.6997505E1,2.9361625E0,-1.0591818E1,-1.732219E1,3.0225697E-1,-1.712296E1,1.1330388E1,-7.2259836E0,1.8543718E1,8.201361E0,-1.2873049E1,-3.5044935E0,-1.0937082E1,-1.7320078E1,1.6939867E1,-2.4467304E0,4.574853E1,3.3180034E0,7.4208535E-2,8.051313E0,2.3901165E1,6.2544203E0,-3.6157575E0,4.7789025E0,-2.7453568E0,5.772866E0,3.7687978E-1,-4.681773E0],"categories":[],"categories_nodes":[],"categories_segments":[],"categories_sizes":[],"default_left":[0,0,0,0,0,0,0,0,0,0,0,0,0,0,0,0,0,0,0,0,0,0,0,0,0,0,0,0,0,0,0,0,0,0,0,0,0,0,0,0,0,0,0,0,0,0,0,0,0,0,0,0,0,0,0,0,0,0,0,0,0,0,0,0,0,0,0,0,0,0,0,0,0,0,0,0,0,0,0,0,0,0,0,0,0,0,0,0,0,0,0,0,0,0,0,0,0,0,0,0,0,0,0,0,0,0,0,0,0,0,0,0,0,0,0,0,0,0,0,0,0,0,0],"id":0,"left_children":[1,3,5,7,9,11,13,15,17,19,21,23,25,27,29,31,33,35,37,39,41,43,45,47,49,51,53,55,57,59,61,63,-1,65,67,69,71,73,75,77,79,81,83,85,87,89,91,93,95,97,99,101,103,105,107,109,111,113,115,117,-1,119,121,-1,-1,-1,-1,-1,-1,-1,-1,-1,-1,-1,-1,-1,-1,-1,-1,-1,-1,-1,-1,-1,-1,-1,-1,-1,-1,-1,-1,-1,-1,-1,-1,-1,-1,-1,-1,-1,-1,-1,-1,-1,-1,-1,-1,-1,-1,-1,-1,-1,-1,-1,-1,-1,-1,-1,-1,-1,-1,-1,-1],"loss_changes":[3.4352002E6,1.141307E6,1.3904302E6,1.9185025E5,5.335931E5,6.8020225E5,1.3250146E6,1.7656375E5,9.04735E4,3.053047E5,5.7964475E5,3.652265E5,1.4856679E6,4.50893E5,4.0618612E5,2.8403625E4,1.8349162E5,6.4212E4,5.1431875E4,2.4459725E5,1.7289025E5,8.549656E4,1.1215039E6,7.2228E5,8.783956E4,5.31672E5,9.453425E4,2.6363325E5,7.64585E5,1.6564225E6,2.3928814E5,3.042175E4,0E0,4.5982547E4,9.903847E4,3.4555625E3,2.073075E4,3.7434094E4,3.6065844E4,4.6716312E4,1.4628125E4,2.3105469E1,9.065119E4,1.1336247E5,4.6816812E4,1.8377269E5,8.265994E4,2.1783925E5,1.1738144E5,3.544525E4,9.891698E4,4.056689E5,1.9766875E5,6.1254406E4,1.799575E4,2.5554362E5,3.4670575E5,2.676463E5,1.53728E6,8.3640275E5,0E0,2.6047777E5,1.347716E5,0E0,0E0,0E0,0E0,0E0,0E0,0E0,0E0,0E0,0E0,0E0,0E0,0E0,0E0,0E0,0E0,0E0,0E0,0E0,0E0,0E0,0E0,0E0,0E0,0E0,0E0,0E0,0E0,0E0,0E0,0E0,0E0,0E0,0E0,0E0,0E0,0E0,0E0,0E0,0E0,0E0,0E0,0E0,0E0,0E0,0E0,0E0,0E0,0E0,0E0,0E0,0E0,0E0,0E0,0E0,0E0,0E0,0E0,0E0,0E0],"parents":[2147483647,0,0,1,1,2,2,3,3,4,4,5,5,6,6,7,7,8,8,9,9,10,10,11,11,12,12,13,13,14,14,15,15,16,16,17,17,18,18,19,19,20,20,21,21,22,22,23,23,24,24,25,25,26,26,27,27,28,28,29,29,30,30,31,31,33,33,34,34,35,35,36,36,37,37,38,38,39,39,40,40,41,41,42,42,43,43,44,44,45,45,46,46,47,47,48,48,49,49,50,50,51,51,52,52,53,53,54,54,55,55,56,56,57,57,58,58,59,59,61,61,62,62],"right_children":[2,4,6,8,10,12,14,16,18,20,22,24,26,28,30,32,34,36,38,40,42,44,46,48,50,52,54,56,58,60,62,64,-1,66,68,70,72,74,76,78,80,82,84,86,88,90,92,94,96,98,100,102,104,106,108,110,112,114,116,118,-1,120,122,-1,-1,-1,-1,-1,-1,-1,-1,-1,-1,-1,-1,-1,-1,-1,-1,-1,-1,-1,-1,-1,-1,-1,-1,-1,-1,-1,-1,-1,-1,-1,-1,-1,-1,-1,-1,-1,-1,-1,-1,-1,-1,-1,-1,-1,-1,-1,-1,-1,-1,-1,-1,-1,-1,-1,-1,-1,-1,-1,-1],"split_conditions":[9.1E1,1.73E2,1.12E2,5.8E1,1.92E2,2.85E2,2.17E2,2.3E1,8.6E1,1.82E2,2.98E2,2.56E2,3.17E2,1.15E2,2.34E2,1.71E2,2.4E1,6.5E1,1.29E2,2.4E1,1.7E1,5.1E1,3.17E2,2.51E2,9.1E1,2.98E2,3.32E2,2.98E2,1.73E2,2.33E2,2.51E2,1.66E2,-2.1058357E1,1.7E1,9.1E1,2.3E1,5.8E1,1.2E2,1.6E2,2.3E1,5.5E1,1.84E2,4.4E1,2.3E1,2.51E2,1.7E1,3.31E2,1.82E2,9.1E1,4.7E1,9.8E1,2.88E2,9.1E1,2.3E1,9.2E1,2.54E2,3.17E2,2.85E2,1.8E2,2.42E2,6.434425E1,2.85E2,2.51E2,-1.086827E1,1.5902484E1,-1.5567021E1,5.5053434E0,-9.790505E0,-3.7264142E0,-2.5658941E1,-1.9877335E1,-1.2378619E1,-1.6529486E1,-9.323012E0,-4.8655233E-1,-1.7643328E1,-9.375136E0,9.33795E0,3.1296854E1,-1.2116391E1,-5.710846E0,-1.5537021E1,-1.0013632E1,9.531317E0,2.066444E1,-7.13492E0,-1.596138E0,-8.77965E0,-4.5362053E0,-1.1032521E1,1.411602E1,-5.594566E0,-1.476389E1,-5.0134535E0,-1.2454071E0,1.6997505E1,2.9361625E0,-1.0591818E1,-1.732219E1,3.0225697E-1,-1.712296E1,1.1330388E1,-7.2259836E0,1.8543718E1,8.201361E0,-1.2873049E1,-3.5044935E0,-1.0937082E1,-1.7320078E1,1.6939867E1,-2.4467304E0,4.574853E1,3.3180034E0,7.4208535E-2,8.051313E0,2.3901165E1,6.2544203E0,-3.6157575E0,4.7789025E0,-2.7453568E0,5.772866E0,3.7687978E-1,-4.681773E0],"split_indices":[1,0,0,1,0,1,0,1,0,0,0,1,1,0,1,0,1,1,0,1,1,1,0,1,0,1,1,1,0,1,0,0,0,0,0,0,0,0,0,1,1,0,1,1,0,1,0,1,0,0,0,1,0,0,0,1,1,1,0,0,0,1,1,0,0,0,0,0,0,0,0,0,0,0,0,0,0,0,0,0,0,0,0,0,0,0,0,0,0,0,0,0,0,0,0,0,0,0,0,0,0,0,0,0,0,0,0,0,0,0,0,0,0,0,0,0,0,0,0,0,0,0,0],"split_type":[0,0,0,0,0,0,0,0,0,0,0,0,0,0,0,0,0,0,0,0,0,0,0,0,0,0,0,0,0,0,0,0,0,0,0,0,0,0,0,0,0,0,0,0,0,0,0,0,0,0,0,0,0,0,0,0,0,0,0,0,0,0,0,0,0,0,0,0,0,0,0,0,0,0,0,0,0,0,0,0,0,0,0,0,0,0,0,0,0,0,0,0,0,0,0,0,0,0,0,0,0,0,0,0,0,0,0,0,0,0,0,0,0,0,0,0,0,0,0,0,0,0,0],"sum_hessian":[3.063E4,7.259E3,2.3371E4,3.348E3,3.911E3,8.078E3,1.5293E4,2.026E3,1.322E3,4.65E2,3.446E3,6.249E3,1.829E3,6.535E3,8.758E3,8.96E2,1.13E3,6.34E2,6.88E2,1.76E2,2.89E2,2.546E3,9E2,5.813E3,4.36E2,1.164E3,6.65E2,4.24E2,6.111E3,5.146E3,3.612E3,8.71E2,2.5E1,1.54E2,9.76E2,1.02E2,5.32E2,4.84E2,2.04E2,3.7E1,1.39E2,2E1,2.69E2,1.338E3,1.208E3,4.9E2,4.1E2,5.549E3,2.64E2,2.98E2,1.38E2,4.23E2,7.41E2,4.46E2,2.19E2,3.46E2,7.8E1,2.31E3,3.801E3,5.108E3,3.8E1,1.299E3,2.313E3,8.68E2,3E0,9E0,1.45E2,5.16E2,4.6E2,3.6E1,6.6E1,3.53E2,1.79E2,4.36E2,4.8E1,1.17E2,8.7E1,2.2E1,1.5E1,5.5E1,8.4E1,9E0,1.1E1,1.31E2,1.38E2,6.19E2,7.19E2,8.85E2,3.23E2,2.7E1,4.63E2,2.8E2,1.3E2,2.588E3,2.961E3,1.89E2,7.5E1,1.42E2,1.56E2,9.7E1,4.1E1,2.02E2,2.21E2,4.84E2,2.57E2,7.5E1,3.71E2,1.6E2,5.9E1,2.67E2,7.9E1,5.2E1,2.6E1,1.834E3,4.76E2,5.13E2,3.288E3,1.52E3,3.588E3,5.97E2,7.02E2,6.65E2,1.648E3],"tree_param":{"num_deleted":"0","num_feature":"2","num_nodes":"123","size_leaf_vector":"1"}},{"base_weights":[-1.3538084E-3,-1.3322857E1,4.136679E0,-2.283028E1,-5.1802998E0,-3.3027587E0,8.066265E0,-1.8506502E1,-2.9437586E1,1.7115976E1,-8.193031E0,-6.737652E0,9.466225E0,1.5613155E1,2.4338248E0,-2.5844334E1,-1.267048E1,-4.6522133E1,-2.6758278E1,-5.7824817E0,3.1032911E1,-1.4779377E1,5.1486177E0,6.410639E-2,-1.2898138E1,2.6830637E1,-1.787217E1,1.3928079E1,4.257322E1,3.5796504E0,-2.6660913E1,-1.7479797E1,-2.9103258E1,9.691582E0,-1.6205229E1,-5.1768795E1,-3.3171158E1,-3.061319E1,-2.029221E1,4.5004925E1,-1.952633E1,-3.1831566E1,3.5807434E1,-1.2312716E1,-3.26738E1,1.9275047E1,-1.9954647E1,-1.1699989E1,6.944265E1,-3.4487274E1,-9.98344E0,2.9029367E1,-4.62383E1,-1.3565694E1,-3.4401806E1,3.7803535E1,1.2154471E1,4.724282E1,-1.8484695E1,-1.3470113E0,1.34774275E1,-4.0176186E1,-1.765257E1,-8.292747E0,1.8720549E0,-1.4628035E1,-7.093781E0,4.554878E0,-1.1689023E1,-6.859033E0,-2.6109161E0,-6.0042305E0,-1.6667831E1,-1.2284098E1,-8.610588E0,-8.766418E0,-1.877303E1,-4.113936E0,-7.6560388E0,6.658364E0,2.2494614E1,-4.7076354E0,-1.4478221E1,-1.05743685E1,-5.2248282E0,6.6935854E0,1.4509705E1,-4.87549E0,8.478268E0,-3.1118495E0,-1.3407316E1,-6.1806E-1,8.899327E0,-4.28708E0,-1.2265598E1,2.5961156E0,-5.3733006E0,2.950485E1,3.756283E0,-1.2616389E1,-5.3052826E0,-2.1355393E0,-6.4221005E0,2.5435803E0,1.1269116E1,-1.44837475E1,-6.1178217E0,-2.8705058E0,-8.519673E0,-1.7750399E1,-7.7923145E0,8.095345E0,2.1539799E1,-1.3160486E0,4.5812445E0,1.1626279E1,3.655679E1,-8.487233E0,6.65582E0,-8.5951224E-2,-7.608954E0,7.52171E0,-1.8630329E0,-1.58379345E1,-8.577819E0,9.807524E0,-6.392316E0],"categories":[],"categories_nodes":[],"categories_segments":[],"categories_sizes":[],"default_left":[0,0,0,0,0,0,0,0,0,0,0,0,0,0,0,0,0,0,0,0,0,0,0,0,0,0,0,0,0,0,0,0,0,0,0,0,0,0,0,0,0,0,0,0,0,0,0,0,0,0,0,0,0,0,0,0,0,0,0,0,0,0,0,0,0,0,0,0,0,0,0,0,0,0,0,0,0,0,0,0,0,0,0,0,0,0,0,0,0,0,0,0,0,0,0,0,0,0,0,0,0,0,0,0,0,0,0,0,0,0,0,0,0,0,0,0,0,0,0,0,0,0,0,0,0,0,0],"id":1,"left_children":[1,3,5,7,9,11,13,15,17,19,21,23,25,27,29,31,33,35,37,39,41,43,45,47,49,51,53,55,57,59,61,63,65,67,69,71,73,75,77,79,81,83,85,87,89,91,93,95,97,99,101,103,105,107,109,111,113,115,117,119,121,123,125,-1,-1,-1,-1,-1,-1,-1,-1,-1,-1,-1,-1,-1,-1,-1,-1,-1,-1,-1,-1,-1,-1,-1,-1,-1,-1,-1,-1,-1,-1,-1,-1,-1,-1,-1,-1,-1,-1,-1,-1,-1,-1,-1,-1,-1,-1,-1,-1,-1,-1,-1,-1,-1,-1,-1,-1,-1,-1,-1,-1,-1,-1,-1,-1],"loss_changes":[1.6885835E6,5.6191275E5,6.832816E5,9.5131125E4,2.6291978E5,3.5440947E5,6.500704E5,8.647625E4,5.931525E4,1.4868264E5,3.029733E5,2.6679178E5,8.1366656E5,2.9633612E5,2.920986E5,2.3942938E4,8.955611E4,1.07513125E4,2.7944125E4,1.2442735E5,8.818272E4,1.0147169E5,4.046508E5,2.4713765E6,2.0989075E5,1.6971275E5,4.6942188E4,2.600935E5,1.1035781E5,4.109927E5,3.9711875E4,6.140142E4,6.7931375E4,4.200468E4,4.8603234E4,1.4054719E4,6.6658594E2,3.0024E4,1.4474266E4,2.4319805E4,1.4667023E4,4.2032617E2,4.4680344E4,3.2488594E5,7.4307375E4,1.6187288E5,4.814364E4,3.2744894E5,7.21111E5,4.9736562E4,9.623225E4,1.7822594E5,6.506172E2,3.1153781E4,2.7057125E4,1.5437856E5,2.9538744E5,2.2138644E5,1.1794643E4,1.4333408E5,6.3955606E5,1.7781984E4,3.768378E4,0E0,0E0,0E0,0E0,0E0,0E0,0E0,0E0,0E0,0E0,0E0,0E0,0E0,0E0,0E0,0E0,0E0,0E0,0E0,0E0,0E0,0E0,0E0,0E0,0E0,0E0,0E0,0E0,0E0,0E0,0E0,0E0,0E0,0E0,0E0,0E0,0E0,0E0,0E0,0E0,0E0,0E0,0E0,0E0,0E0,0E0,0E0,0E0,0E0,0E0,0E0,0E0,0E0,0E0,0E0,0E0,0E0,0E0,0E0,0E0,0E0,0E0,0E0,0E0],"parents":[2147483647,0,0,1,1,2,2,3,3,4,4,5,5,6,6,7,7,8,8,9,9,10,10,11,11,12,12,13,13,14,14,15,15,16,16,17,17,18,18,19,19,20,20,21,21,22,22,23,23,24,24,25,25,26,26,27,27,28,28,29,29,30,30,31,31,32,32,33,33,34,34,35,35,36,36,37,37,38,38,39,39,40,40,41,41,42,42,43,43,44,44,45,45,46,46,47,47,48,48,49,49,50,50,51,51,52,52,53,53,54,54,55,55,56,56,57,57,58,58,59,59,60,60,61,61,62,62],"right_children":[2,4,6,8,10,12,14,16,18,20,22,24,26,28,30,32,34,36,38,40,42,44,46,48,50,52,54,56,58,60,62,64,66,68,70,72,74,76,78,80,82,84,86,88,90,92,94,96,98,100,102,104,106,108,110,112,114,116,118,120,122,124,126,-1,-1,-1,-1,-1,-1,-1,-1,-1,-1,-1,-1,-1,-1,-1,-1,-1,-1,-1,-1,-1,-1,-1,-1,-1,-1,-1,-1,-1,-1,-1,-1,-1,-1,-1,-1,-1,-1,-1,-1,-1,-1,-1,-1,-1,-1,-1,-1,-1,-1,-1,-1,-1,-1,-1,-1,-1,-1,-1,-1,-1,-1,-1,-1],"split_conditions":[9.1E1,1.73E2,1.12E2,5.8E1,1.92E2,2.87E2,2.17E2,2.3E1,2.3E1,1.82E2,2.84E2,1.91E2,3.17E2,2.16E2,3.33E2,5.8E1,2.4E1,8.6E1,8.2E1,2.4E1,1.7E1,2.56E2,3.17E2,1.82E2,2.04E2,1.06E2,3.39E2,1.15E2,3.21E2,2.98E2,1.82E2,4.3E1,8.6E1,1.6E2,9.1E1,1.7E1,1.7E1,7.8E1,8.8E1,2.3E1,8.6E1,3E0,4.4E1,2.51E2,4.2E1,2.98E2,3.39E2,9.8E1,9.1E1,9.1E1,2.54E2,2.98E2,3.11E2,9.2E1,2.3E1,2.87E2,1.5E2,2.98E2,3.32E2,2.89E2,2.39E2,3.39E2,1.84E2,-8.292747E0,1.8720549E0,-1.4628035E1,-7.093781E0,4.554878E0,-1.1689023E1,-6.859033E0,-2.6109161E0,-6.0042305E0,-1.6667831E1,-1.2284098E1,-8.610588E0,-8.766418E0,-1.877303E1,-4.113936E0,-7.6560388E0,6.658364E0,2.2494614E1,-4.7076354E0,-1.4478221E1,-1.05743685E1,-5.2248282E0,6.6935854E0,1.4509705E1,-4.87549E0,8.478268E0,-3.1118495E0,-1.3407316E1,-6.1806E-1,8.899327E0,-4.28708E0,-1.2265598E1,2.5961156E0,-5.3733006E0,2.950485E1,3.756283E0,-1.2616389E1,-5.3052826E0,-2.1355393E0,-6.4221005E0,2.5435803E0,1.1269116E1,-1.44837475E1,-6.1178217E0,-2.8705058E0,-8.519673E0,-1.7750399E1,-7.7923145E0,8.095345E0,2.1539799E1,-1.3160486E0,4.5812445E0,1.1626279E1,3.655679E1,-8.487233E0,6.65582E0,-8.5951224E-2,-7.608954E0,7.52171E0,-1.8630329E0,-1.58379345E1,-8.577819E0,9.807524E0,-6.392316E0],"split_indices":[1,0,0,1,0,1,0,1,0,0,0,1,1,0,0,0,1,1,1,1,1,0,0,1,1,0,1,0,1,0,1,0,0,0,0,0,0,1,1,1,1,1,1,0,1,0,0,1,0,0,1,1,1,0,0,1,0,1,1,0,1,0,1,0,0,0,0,0,0,0,0,0,0,0,0,0,0,0,0,0,0,0,0,0,0,0,0,0,0,0,0,0,0,0,0,0,0,0,0,0,0,0,0,0,0,0,0,0,0,0,0,0,0,0,0,0,0,0,0,0,0,0,0,0,0,0,0],"split_type":[0,0,0,0,0,0,0,0,0,0,0,0,0,0,0,0,0,0,0,0,0,0,0,0,0,0,0,0,0,0,0,0,0,0,0,0,0,0,0,0,0,0,0,0,0,0,0,0,0,0,0,0,0,0,0,0,0,0,0,0,0,0,0,0,0,0,0,0,0,0,0,0,0,0,0,0,0,0,0,0,0,0,0,0,0,0,0,0,0,0,0,0,0,0,0,0,0,0,0,0,0,0,0,0,0,0,0,0,0,0,0,0,0,0,0,0,0,0,0,0,0,0,0,0,0,0,0],"sum_hessian":[3.063E4,7.259E3,2.3371E4,3.348E3,3.911E3,8.078E3,1.5293E4,2.026E3,1.322E3,4.65E2,3.446E3,6.366E3,1.712E3,6.535E3,8.758E3,8.96E2,1.13E3,1.77E2,1.145E3,1.76E2,2.89E2,2.307E3,1.139E3,3.026E3,3.34E3,1.047E3,6.65E2,6.152E3,3.83E2,8.427E3,3.31E2,2.53E2,6.43E2,1.54E2,9.76E2,1.25E2,5.2E1,7.15E2,4.3E2,3.7E1,1.39E2,2E1,2.69E2,2.029E3,2.78E2,7.29E2,4.1E2,2.588E3,4.38E2,3.96E2,2.944E3,1.017E3,3E1,5.29E2,1.36E2,4.24E2,5.728E3,3.56E2,2.7E1,5.627E3,2.8E3,1.31E2,2E2,1.77E2,7.6E1,1.38E2,5.05E2,1.39E2,1.5E1,5.16E2,4.6E2,1.4E1,1.11E2,1.6E1,3.6E1,6.87E2,2.8E1,1.92E2,2.38E2,2.2E1,1.5E1,1.24E2,1.5E1,1.5E1,5E0,1.31E2,1.38E2,1.85E3,1.79E2,9.8E1,1.8E2,2.39E2,4.9E2,3.24E2,8.6E1,6.05E2,1.983E3,2.9E2,1.48E2,2.72E2,1.24E2,2.355E3,5.89E2,2.99E2,7.18E2,2.7E1,3E0,4.18E2,1.11E2,3.3E1,1.03E2,3.23E2,1.01E2,9.08E2,4.82E3,3.21E2,3.5E1,2.2E1,5E0,5.39E3,2.37E2,1.762E3,1.038E3,6.1E1,7E1,1.3E1,1.87E2],"tree_param":{"num_deleted":"0","num_feature":"2","num_nodes":"127","size_leaf_vector":"1"}},{"base_weights":[-4.7634565E-3,-6.891023E0,4.5136003E0,-5.3978057E0,-3.247746E1,1.5739949E2,3.3557587E0,-7.7071867E0,1.4223018E1,-3.446558E1,-9.656165E0,1.0340894E2,1.2114581E2,1.605293E1,-1.8832436E-1,-1.4221242E1,-4.4514127E0,8.090419E0,4.316193E1,-4.4204685E1,-3.0972767E1,1.2700971E1,-3.331175E1,5.172661E1,6.339881E1,-1.0544638E1,3.8811733E1,-4.60059E0,7.6449347E0,-1.7762825E1,-4.834854E0,-3.0470855E0,-2.0482227E1,1.112857E1,-2.7886843E1,6.401971E1,-1.4313818E1,-2.0488367E1,-5.7130333E1,-2.2094246E1,-3.866425E1,-1.3081459E1,7.144875E1,-2.124636E1,-1.4678975E1,8.2407646E1,-2.9495665E1,-4.8658667E0,-2.2735546E1,5.2049416E1,7.999866E0,-1.0462959E0,-2.7070606E1,2.1128347E1,-7.6731977E0,-4.8340054E0,-1.0577507E1,1.550193E0,-8.061272E0,-6.919199E-1,-7.4766245E0,-7.8023024E0,-1.2225991E0,-1.4601073E0,5.5463E0,-1.2471139E1,-2.6867917E0,3.1887802E1,8.386853E0,3.557471E0,-8.313571E0,-7.101519E-1,-8.989064E0,-1.4297371E1,-2.0771809E1,-9.847315E0,-6.5360373E-1,-1.221551E1,1.2811882E0,1.6515472E1,-9.705327E0,2.75986E1,6.8300095E0,-1.3669803E1,3.5426967E0,-1.3248474E1,3.308306E1,-4.575485E0,1.6632166E0,-1.5070075E1,-5.582821E0,1.00506935E1,2.628239E1,1.5737157E1,-5.813501E0,-1.2447966E0,7.4814596E0,-6.7635274E0,-1.1664498E1,8.8934E0,-6.037817E-1,-1.2556236E0,-7.7838955E0],"categories":[],"categories_nodes":[],"categories_segments":[],"categories_sizes":[],"default_left":[0,0,0,0,0,0,0,0,0,0,0,0,0,0,0,0,0,0,0,0,0,0,0,0,0,0,0,0,0,0,0,0,0,0,0,0,0,0,0,0,0,0,0,0,0,0,0,0,0,0,0,0,0,0,0,0,0,0,0,0,0,0,0,0,0,0,0,0,0,0,0,0,0,0,0,0,0,0,0,0,0,0,0,0,0,0,0,0,0,0,0,0,0,0,0,0,0,0,0,0,0,0,0],"id":2,"left_children":[1,3,5,7,9,11,13,15,17,19,21,-1,23,25,27,29,31,33,35,37,39,41,43,45,-1,47,49,51,53,55,57,59,61,63,65,67,69,71,73,75,77,79,81,83,-1,85,-1,87,89,91,93,95,97,99,101,-1,-1,-1,-1,-1,-1,-1,-1,-1,-1,-1,-1,-1,-1,-1,-1,-1,-1,-1,-1,-1,-1,-1,-1,-1,-1,-1,-1,-1,-1,-1,-1,-1,-1,-1,-1,-1,-1,-1,-1,-1,-1,-1,-1,-1,-1,-1,-1],"loss_changes":[9.531032E5,4.6349406E5,3.2735895E6,5.1974712E5,3.0020688E4,9.0207975E5,8.261099E5,2.1755494E5,2.140354E5,1.9551188E4,2.9511004E4,0E0,7.2780425E5,2.4253562E6,4.9610962E5,1.13570875E5,1.5399067E5,1.0939604E5,2.5386656E5,4.787728E4,3.0285562E4,4.4859812E4,4.0482754E3,3.211437E5,0E0,1.2782525E5,8.801915E5,7.3329256E5,1.0683906E6,7.10585E4,2.0688173E5,1.0190487E5,4.984514E4,1.0850376E5,1.9833027E4,2.3332794E5,2.0315977E4,9.887756E3,8.514531E3,4.5659594E4,2.1604812E4,2.9351842E4,6.9078125E3,1.4204291E4,0E0,2.05931E5,0E0,1.3652552E5,6.566672E4,9.9292225E5,7.9217144E5,6.3942325E5,6.615119E4,5.422151E5,1.5425205E5,0E0,0E0,0E0,0E0,0E0,0E0,0E0,0E0,0E0,0E0,0E0,0E0,0E0,0E0,0E0,0E0,0E0,0E0,0E0,0E0,0E0,0E0,0E0,0E0,0E0,0E0,0E0,0E0,0E0,0E0,0E0,0E0,0E0,0E0,0E0,0E0,0E0,0E0,0E0,0E0,0E0,0E0,0E0,0E0,0E0,0E0,0E0,0E0],"parents":[2147483647,0,0,1,1,2,2,3,3,4,4,5,5,6,6,7,7,8,8,9,9,10,10,12,12,13,13,14,14,15,15,16,16,17,17,18,18,19,19,20,20,21,21,22,22,23,23,25,25,26,26,27,27,28,28,29,29,30,30,31,31,32,32,33,33,34,34,35,35,36,36,37,37,38,38,39,39,40,40,41,41,42,42,43,43,45,45,47,47,48,48,49,49,50,50,51,51,52,52,53,53,54,54],"right_children":[2,4,6,8,10,12,14,16,18,20,22,-1,24,26,28,30,32,34,36,38,40,42,44,46,-1,48,50,52,54,56,58,60,62,64,66,68,70,72,74,76,78,80,82,84,-1,86,-1,88,90,92,94,96,98,100,102,-1,-1,-1,-1,-1,-1,-1,-1,-1,-1,-1,-1,-1,-1,-1,-1,-1,-1,-1,-1,-1,-1,-1,-1,-1,-1,-1,-1,-1,-1,-1,-1,-1,-1,-1,-1,-1,-1,-1,-1,-1,-1,-1,-1,-1,-1,-1,-1],"split_conditions":[1.5E2,1.24E2,1.52E2,1.12E2,1.45E2,1.6E2,1.91E2,1.12E2,2.87E2,9.1E1,1.63E2,1.0340894E2,2.34E2,1.73E2,2.85E2,9.1E1,9.9E1,2.54E2,3.17E2,1.38E2,2.08E2,9.8E1,2.88E2,2.33E2,6.339881E1,1.62E2,2.51E2,2.56E2,3.09E2,9.9E1,9.9E1,3.31E2,2.84E2,8.6E1,1.13E2,1.13E2,3.27E2,1.29E2,1.4E2,1.15E2,3.17E2,4.3E1,1.6E2,2.28E2,-1.4678975E1,1.71E2,-2.9495665E1,1.6E2,1.65E2,1.84E2,1.82E2,2.51E2,2.75E2,2.42E2,3.34E2,-4.8340054E0,-1.0577507E1,1.550193E0,-8.061272E0,-6.919199E-1,-7.4766245E0,-7.8023024E0,-1.2225991E0,-1.4601073E0,5.5463E0,-1.2471139E1,-2.6867917E0,3.1887802E1,8.386853E0,3.557471E0,-8.313571E0,-7.101519E-1,-8.989064E0,-1.4297371E1,-2.0771809E1,-9.847315E0,-6.5360373E-1,-1.221551E1,1.2811882E0,1.6515472E1,-9.705327E0,2.75986E1,6.8300095E0,-1.3669803E1,3.5426967E0,-1.3248474E1,3.308306E1,-4.575485E0,1.6632166E0,-1.5070075E1,-5.582821E0,1.00506935E1,2.628239E1,1.5737157E1,-5.813501E0,-1.2447966E0,7.4814596E0,-6.7635274E0,-1.1664498E1,8.8934E0,-6.037817E-1,-1.2556236E0,-7.7838955E0],"split_indices":[1,1,1,1,1,0,1,0,0,0,0,0,0,1,1,1,1,0,0,1,0,0,0,0,0,1,0,1,1,0,1,0,0,0,1,1,0,1,1,0,0,0,0,0,0,0,0,1,1,1,1,1,1,0,1,0,0,0,0,0,0,0,0,0,0,0,0,0,0,0,0,0,0,0,0,0,0,0,0,0,0,0,0,0,0,0,0,0,0,0,0,0,0,0,0,0,0,0,0,0,0,0,0],"split_type":[0,0,0,0,0,0,0,0,0,0,0,0,0,0,0,0,0,0,0,0,0,0,0,0,0,0,0,0,0,0,0,0,0,0,0,0,0,0,0,0,0,0,0,0,0,0,0,0,0,0,0,0,0,0,0,0,0,0,0,0,0,0,0,0,0,0,0,0,0,0,0,0,0,0,0,0,0,0,0,0,0,0,0,0,0,0,0,0,0,0,0,0,0,0,0,0,0,0,0,0,0,0,0],"sum_hessian":[3.063E4,1.2135E4,1.8495E4,1.1467E4,6.68E2,1.38E2,1.8357E4,1.026E4,1.207E3,6.14E2,5.4E1,2.1E1,1.17E2,4.005E3,1.4352E4,3.418E3,6.842E3,9.97E2,2.1E2,1.59E2,4.55E2,2.8E1,2.6E1,6.7E1,5E1,1.847E3,2.158E3,9.181E3,5.171E3,2.481E3,9.37E2,6.292E3,5.5E2,9.2E2,7.7E1,1.54E2,5.6E1,5.7E1,1.02E2,2.13E2,2.42E2,2E1,8E0,1.6E1,1E1,5.6E1,1.1E1,1.261E3,5.86E2,1.509E3,6.49E2,7.928E3,1.253E3,2.75E3,2.421E3,2.269E3,2.12E2,6.45E2,2.92E2,6.087E3,2.05E2,4.11E2,1.39E2,2.9E2,6.3E2,4.4E1,3.3E1,7E1,8.4E1,1.9E1,3.7E1,2E1,3.7E1,6E1,4.2E1,1.38E2,7.5E1,2.31E2,1.1E1,4E0,1.6E1,5E0,3E0,9E0,7E0,1E1,4.6E1,6.31E2,6.3E2,7.5E1,5.11E2,9.93E2,5.16E2,2.47E2,4.02E2,7.083E3,8.45E2,9.08E2,3.45E2,2.01E3,7.4E2,2.034E3,3.87E2],"tree_param":{"num_deleted":"0","num_feature":"2","num_nodes":"103","size_leaf_vector":"1"}},{"base_weights":[1.2057437E-5,-4.8290234E0,3.1685443E0,-3.7797406E0,-2.2808613E1,1.1131019E2,2.3495631E0,-5.3988404E0,9.976354E0,-2.423355E1,-6.4605417E0,2.4017818E2,8.368828E1,1.1242716E1,-1.3272782E-1,-7.698207E0,1.1578908E0,5.895864E0,3.371132E1,-3.263321E1,-2.1825674E1,1.0312703E1,-2.423697E1,2.7131105E1,2.4968024E2,3.1817938E1,4.4752094E1,-7.393999E0,2.718964E1,-3.1406205E0,7.446781E0,-6.8696775E0,-2.0597776E1,2.2814631E0,-5.0290497E1,-3.6187056E-1,1.4692545E1,5.4072567E1,-1.0103112E1,-1.4509085E1,-4.5691746E1,-1.636162E1,-2.7109966E1,-1.55627365E1,4.3356533E1,-1.8722715E1,-1.3426545E1,9.968285E1,1.9793951E2,5.3733784E1,-2.1384356E1,-1.0740919E1,1.1789438E1,3.6458652E1,5.615179E0,-1.7246054E0,-4.104689E1,2.6183548E1,-5.374965E0,-5.473342E0,-1.7555257E0,6.531161E0,-7.377998E0,2.277742E0,-2.6914396E0,-1.6583584E1,-1.2154004E1,-5.864788E0,1.8916171E0,5.9360456E0,8.4705347E-1,2.8979204E1,6.8295064E0,2.5435934E0,-5.885134E0,-2.3730826E0,-8.620094E0,-1.004393E1,-1.7495726E1,-6.940004E0,-4.6010074E-1,-1.0746497E1,-5.3193665E0,1.2551759E1,-1.09329815E1,4.74475E0,1.615186E1,-9.978955E0,-2.0997984E0,2.5197134E1,7.737298E1,-2.3527803E1,2.3369312E1,-5.6871715E0,-2.0042965E0,1.1342879E1,-3.962128E0,1.5918076E0,1.5004877E1,1.1035048E1,-4.0737762E0,-8.7755936E-1,6.6049533E0,-2.1122131E1,-1.1559141E1,1.109679E1,4.1695666E-1,-7.139604E-1,-5.056323E0],"categories":[],"categories_nodes":[],"categories_segments":[],"categories_sizes":[],"default_left":[0,0,0,0,0,0,0,0,0,0,0,0,0,0,0,0,0,0,0,0,0,0,0,0,0,0,0,0,0,0,0,0,0,0,0,0,0,0,0,0,0,0,0,0,0,0,0,0,0,0,0,0,0,0,0,0,0,0,0,0,0,0,0,0,0,0,0,0,0,0,0,0,0,0,0,0,0,0,0,0,0,0,0,0,0,0,0,0,0,0,0,0,0,0,0,0,0,0,0,0,0,0,0,0,0,0,0,0,0],"id":3,"left_children":[1,3,5,7,9,11,13,15,17,19,21,23,25,27,29,31,33,35,37,39,41,43,45,-1,47,49,-1,51,53,55,57,59,61,63,65,67,69,71,73,75,77,79,81,83,85,87,-1,-1,89,91,-1,93,95,97,99,101,103,105,107,-1,-1,-1,-1,-1,-1,-1,-1,-1,-1,-1,-1,-1,-1,-1,-1,-1,-1,-1,-1,-1,-1,-1,-1,-1,-1,-1,-1,-1,-1,-1,-1,-1,-1,-1,-1,-1,-1,-1,-1,-1,-1,-1,-1,-1,-1,-1,-1,-1,-1],"loss_changes":[4.686988E5,2.288676E5,1.6378549E6,2.5547475E5,1.5427781E4,4.746815E5,4.0526156E5,1.5470712E5,1.1679639E5,1.1726344E4,1.664921E4,1.1568E4,3.892763E5,1.1907772E6,3.272481E5,8.105275E4,1.5416766E5,5.6814113E4,1.5845094E5,3.128811E4,1.3444656E4,2.547043E4,2.2169092E3,0E0,2.8248125E4,1.5295748E5,0E0,1.1877826E5,4.31539E5,5.515022E5,9.798316E5,8.256509E4,7.806775E4,1.5599347E5,5.403594E2,7.73915E4,2.5883234E4,1.5889388E5,1.0243176E4,5.2168887E3,1.0075469E4,2.3962703E4,1.9219078E4,2.1900668E4,2.9017031E3,3.6878413E3,0E0,0E0,8.7675125E4,1.8175166E5,0E0,5.237833E4,1.7936312E5,6.374906E5,3.8936722E5,2.8244766E5,2.462375E4,4.4388288E5,8.32332E4,0E0,0E0,0E0,0E0,0E0,0E0,0E0,0E0,0E0,0E0,0E0,0E0,0E0,0E0,0E0,0E0,0E0,0E0,0E0,0E0,0E0,0E0,0E0,0E0,0E0,0E0,0E0,0E0,0E0,0E0,0E0,0E0,0E0,0E0,0E0,0E0,0E0,0E0,0E0,0E0,0E0,0E0,0E0,0E0,0E0,0E0,0E0,0E0,0E0,0E0],"parents":[2147483647,0,0,1,1,2,2,3,3,4,4,5,5,6,6,7,7,8,8,9,9,10,10,11,11,12,12,13,13,14,14,15,15,16,16,17,17,18,18,19,19,20,20,21,21,22,22,24,24,25,25,27,27,28,28,29,29,30,30,31,31,32,32,33,33,34,34,35,35,36,36,37,37,38,38,39,39,40,40,41,41,42,42,43,43,44,44,45,45,48,48,49,49,51,51,52,52,53,53,54,54,55,55,56,56,57,57,58,58],"right_children":[2,4,6,8,10,12,14,16,18,20,22,24,26,28,30,32,34,36,38,40,42,44,46,-1,48,50,-1,52,54,56,58,60,62,64,66,68,70,72,74,76,78,80,82,84,86,88,-1,-1,90,92,-1,94,96,98,100,102,104,106,108,-1,-1,-1,-1,-1,-1,-1,-1,-1,-1,-1,-1,-1,-1,-1,-1,-1,-1,-1,-1,-1,-1,-1,-1,-1,-1,-1,-1,-1,-1,-1,-1,-1,-1,-1,-1,-1,-1,-1,-1,-1,-1,-1,-1,-1,-1,-1,-1,-1,-1],"split_conditions":[1.5E2,1.24E2,1.52E2,1.12E2,1.45E2,1.63E2,1.91E2,2.45E2,2.98E2,7.1E1,1.63E2,2.1E1,2.34E2,1.73E2,2.98E2,2.38E2,1.03E2,1.2E2,3.17E2,1.38E2,2.08E2,9.2E1,3.04E2,2.7131105E1,4.7E1,2.33E2,4.4752094E1,2.84E2,2.51E2,2.89E2,3.09E2,2.3E1,2.1E1,3.09E2,2.99E2,8.6E1,1.94E2,1.13E2,3.27E2,4.3E1,5.8E1,1.15E2,2.47E2,4.3E1,9.8E1,2.28E2,-1.3426545E1,9.968285E1,9.2E1,1.71E2,-2.1384356E1,1.6E2,3.09E2,1.82E2,1.82E2,2.87E2,2.3E1,2.42E2,3.32E2,-5.473342E0,-1.7555257E0,6.531161E0,-7.377998E0,2.277742E0,-2.6914396E0,-1.6583584E1,-1.2154004E1,-5.864788E0,1.8916171E0,5.9360456E0,8.4705347E-1,2.8979204E1,6.8295064E0,2.5435934E0,-5.885134E0,-2.3730826E0,-8.620094E0,-1.004393E1,-1.7495726E1,-6.940004E0,-4.6010074E-1,-1.0746497E1,-5.3193665E0,1.2551759E1,-1.09329815E1,4.74475E0,1.615186E1,-9.978955E0,-2.0997984E0,2.5197134E1,7.737298E1,-2.3527803E1,2.3369312E1,-5.6871715E0,-2.0042965E0,1.1342879E1,-3.962128E0,1.5918076E0,1.5004877E1,1.1035048E1,-4.0737762E0,-8.7755936E-1,6.6049533E0,-2.1122131E1,-1.1559141E1,1.109679E1,4.1695666E-1,-7.139604E-1,-5.056323E0],"split_indices":[1,1,1,1,1,0,1,0,0,0,0,0,0,1,1,0,1,1,0,1,0,0,0,0,0,0,0,0,0,1,1,0,1,0,0,0,0,1,0,0,0,0,0,0,0,0,0,0,0,0,0,1,0,1,1,1,0,0,1,0,0,0,0,0,0,0,0,0,0,0,0,0,0,0,0,0,0,0,0,0,0,0,0,0,0,0,0,0,0,0,0,0,0,0,0,0,0,0,0,0,0,0,0,0,0,0,0,0,0],"split_type":[0,0,0,0,0,0,0,0,0,0,0,0,0,0,0,0,0,0,0,0,0,0,0,0,0,0,0,0,0,0,0,0,0,0,0,0,0,0,0,0,0,0,0,0,0,0,0,0,0,0,0,0,0,0,0,0,0,0,0,0,0,0,0,0,0,0,0,0,0,0,0,0,0,0,0,0,0,0,0,0,0,0,0,0,0,0,0,0,0,0,0,0,0,0,0,0,0,0,0,0,0,0,0,0,0,0,0,0,0],"sum_hessian":[3.063E4,1.2135E4,1.8495E4,1.1467E4,6.68E2,1.38E2,1.8357E4,1.026E4,1.207E3,6.14E2,5.4E1,2.3E1,1.15E2,4.005E3,1.4352E4,7.596E3,2.664E3,1.031E3,1.76E2,1.34E2,4.8E2,2.8E1,2.6E1,2E0,2.1E1,6.5E1,5E1,1.847E3,2.158E3,1.0275E4,4.077E3,7.139E3,4.57E2,2.608E3,5.6E1,6.03E2,4.28E2,1.2E2,5.6E1,5.7E1,7.7E1,2.38E2,2.42E2,1.6E1,1.2E1,2.2E1,4E0,6E0,1.5E1,5.4E1,1.1E1,1.573E3,2.74E2,1.509E3,6.49E2,9.906E3,3.69E2,1.656E3,2.421E3,5.85E2,6.554E3,3.9E1,4.18E2,1.772E3,8.36E2,3.4E1,2.2E1,1.55E2,4.48E2,2.99E2,1.29E2,5E1,7E1,1.9E1,3.7E1,4E1,1.7E1,4.1E1,3.6E1,1.63E2,7.5E1,1.24E2,1.18E2,4E0,1.2E1,4E0,8E0,9E0,1.3E1,6E0,9E0,8E0,4.6E1,5.19E2,1.054E3,1.34E2,1.4E2,4.58E2,1.051E3,2.47E2,4.02E2,9.43E3,4.76E2,2.7E1,3.42E2,1.153E3,5.03E2,1.921E3,5E2],"tree_param":{"num_deleted":"0","num_feature":"2","num_nodes":"109","size_leaf_vector":"1"}},{"base_weights":[6.136374E-3,-4.8709664E0,2.5720093E0,-7.3635755E0,1.8845158E0,-1.3931906E0,5.195459E0,-2.0093687E0,-1.0995519E1,4.4907566E1,-9.1160305E-2,-3.4111059E0,4.7243495E0,6.615239E1,4.573171E0,-1.0305862E1,1.8204126E1,-1.7706457E1,-6.6924734E0,1.7372343E1,7.541524E1,-2.6737444E1,1.9521085E0,-2.088506E0,-1.8578259E1,1.5400189E1,-6.3732843E0,3.750473E1,1.05299034E2,1.3492527E1,2.0227847E0,-1.4488159E1,-4.503539E0,4.172728E1,1.575779E0,-1.6200314E1,-3.9568386E1,-6.811703E-1,-1.1241038E1,-2.5167402E1,2.6177782E1,1.1470228E2,6.0643658E1,-3.4927727E1,8.959907E0,3.3243046E1,-1.1615218E0,1.0170542E1,-3.229202E0,-1.4065293E1,-3.525337E1,9.869072E0,7.6322525E1,-3.6711965E0,-1.5136088E1,6.324595E1,2.4209435E1,3.4899708E1,2.2916801E1,-1.9980924E0,2.5573229E1,-1.5333475E1,2.8555636E0,1.4555831E1,-4.5360656E0,1.2568227E0,-3.9842455E0,9.328972E0,1.8013754E1,-3.5675728E0,4.0545154E0,-5.10512E0,1.47517185E1,-4.174144E0,-1.364628E1,1.1229026E-1,-4.186755E0,-2.7968159E0,-7.154526E0,3.0362031E0,-9.971127E0,1.6265474E1,2.3413246E0,1.6075119E1,4.484827E1,-1.1739168E1,2.3099068E1,-5.3649926E0,-1.3902657E1,1.3960927E1,-1.298034E1,-2.4362803E1,1.1488297E1,2.0048273E0,-1.6617926E0,3.0456293E-1,6.6135573E0,-7.432015E0,-5.9861225E-1,-7.3533E0,4.309783E0,-1.3892598E1,-1.7483059E0,8.205087E0,1.4342871E0,2.774537E1,5.993932E0,-4.071388E0,9.542207E-2,-3.4853306E0,-7.1503043E0,1.6247314E1,-6.1524076E0,1.000825E0,-4.0999827E0,1.5296581E1,1.9868187E0,3.4185588E-1,-9.684767E0,1.4060252E1,7.2437054E-1],"categories":[],"categories_nodes":[],"categories_segments":[],"categories_sizes":[],"default_left":[0,0,0,0,0,0,0,0,0,0,0,0,0,0,0,0,0,0,0,0,0,0,0,0,0,0,0,0,0,0,0,0,0,0,0,0,0,0,0,0,0,0,0,0,0,0,0,0,0,0,0,0,0,0,0,0,0,0,0,0,0,0,0,0,0,0,0,0,0,0,0,0,0,0,0,0,0,0,0,0,0,0,0,0,0,0,0,0,0,0,0,0,0,0,0,0,0,0,0,0,0,0,0,0,0,0,0,0,0,0,0,0,0,0,0,0,0,0,0,0,0],"id":4,"left_children":[1,3,5,7,9,11,13,15,17,19,21,23,25,27,29,31,33,35,37,39,41,43,45,47,49,51,53,55,57,59,61,63,65,67,69,71,73,75,77,79,81,83,85,87,89,91,93,95,97,99,101,103,105,107,109,-1,111,-1,-1,113,115,117,119,-1,-1,-1,-1,-1,-1,-1,-1,-1,-1,-1,-1,-1,-1,-1,-1,-1,-1,-1,-1,-1,-1,-1,-1,-1,-1,-1,-1,-1,-1,-1,-1,-1,-1,-1,-1,-1,-1,-1,-1,-1,-1,-1,-1,-1,-1,-1,-1,-1,-1,-1,-1,-1,-1,-1,-1,-1,-1],"loss_changes":[3.8332966E5,1.7783136E5,2.0880622E5,1.4998572E5,2.4199798E5,9.868714E4,4.5792528E5,5.2324747E5,1.3260244E5,1.0369431E5,1.4830734E5,1.2054233E5,2.3503716E5,1.3286888E5,2.720137E5,5.361342E4,3.5509953E5,5.8463312E4,7.660686E4,2.5755764E4,2.7283625E4,5.7033E4,2.465325E5,7.736352E4,3.5776656E4,3.39922E5,2.2983E4,1.60804E5,7.380875E3,4.976499E5,1.3447973E5,5.1908125E4,7.086243E4,7.135475E4,8.586412E4,9.059097E4,1.683039E4,1.6930562E4,3.8352734E4,3.7535454E3,2.8427926E4,2.3886047E4,7.643631E4,2.9910594E4,7.462733E4,1.3550178E5,7.908903E4,5.1183023E4,1.3445455E5,1.1350315E5,3.2911688E4,8.241153E4,7.464369E4,2.9427465E4,6.731242E3,0E0,9.2177E4,0E0,0E0,7.261966E4,7.1922356E5,1.1897688E5,1.7216156E5,0E0,0E0,0E0,0E0,0E0,0E0,0E0,0E0,0E0,0E0,0E0,0E0,0E0,0E0,0E0,0E0,0E0,0E0,0E0,0E0,0E0,0E0,0E0,0E0,0E0,0E0,0E0,0E0,0E0,0E0,0E0,0E0,0E0,0E0,0E0,0E0,0E0,0E0,0E0,0E0,0E0,0E0,0E0,0E0,0E0,0E0,0E0,0E0,0E0,0E0,0E0,0E0,0E0,0E0,0E0,0E0,0E0,0E0],"parents":[2147483647,0,0,1,1,2,2,3,3,4,4,5,5,6,6,7,7,8,8,9,9,10,10,11,11,12,12,13,13,14,14,15,15,16,16,17,17,18,18,19,19,20,20,21,21,22,22,23,23,24,24,25,25,26,26,27,27,28,28,29,29,30,30,31,31,32,32,33,33,34,34,35,35,36,36,37,37,38,38,39,39,40,40,41,41,42,42,43,43,44,44,45,45,46,46,47,47,48,48,49,49,50,50,51,51,52,52,53,53,54,54,56,56,59,59,60,60,61,61,62,62],"right_children":[2,4,6,8,10,12,14,16,18,20,22,24,26,28,30,32,34,36,38,40,42,44,46,48,50,52,54,56,58,60,62,64,66,68,70,72,74,76,78,80,82,84,86,88,90,92,94,96,98,100,102,104,106,108,110,-1,112,-1,-1,114,116,118,120,-1,-1,-1,-1,-1,-1,-1,-1,-1,-1,-1,-1,-1,-1,-1,-1,-1,-1,-1,-1,-1,-1,-1,-1,-1,-1,-1,-1,-1,-1,-1,-1,-1,-1,-1,-1,-1,-1,-1,-1,-1,-1,-1,-1,-1,-1,-1,-1,-1,-1,-1,-1,-1,-1,-1,-1,-1,-1],"split_conditions":[1.12E2,2.45E2,1.5E2,5.8E1,2.47E2,2.84E2,1.52E2,4.4E1,8.8E1,2.46E2,2.51E2,2.56E2,3.09E2,2.34E2,1.91E2,2.3E1,4.7E1,2.38E2,9.2E1,2.6E1,2.6E1,9.1E1,2.54E2,1.25E2,9.8E1,3.08E2,3.31E2,1.6E2,2.99E2,1.73E2,1.94E2,3E0,3.4E1,1.74E2,5.6E1,2.32E2,6.5E1,2.34E2,2.17E2,1.3E1,4.7E1,2.1E1,4.4E1,4.3E1,9.9E1,6E0,5.5E1,1.2E2,1.5E2,9.1E1,1.13E2,2.88E2,1.03E2,3.11E2,9.2E1,6.324595E1,1.92E2,3.4899708E1,2.2916801E1,1.62E2,2.32E2,2.37E2,1.96E2,1.4555831E1,-4.5360656E0,1.2568227E0,-3.9842455E0,9.328972E0,1.8013754E1,-3.5675728E0,4.0545154E0,-5.10512E0,1.47517185E1,-4.174144E0,-1.364628E1,1.1229026E-1,-4.186755E0,-2.7968159E0,-7.154526E0,3.0362031E0,-9.971127E0,1.6265474E1,2.3413246E0,1.6075119E1,4.484827E1,-1.1739168E1,2.3099068E1,-5.3649926E0,-1.3902657E1,1.3960927E1,-1.298034E1,-2.4362803E1,1.1488297E1,2.0048273E0,-1.6617926E0,3.0456293E-1,6.6135573E0,-7.432015E0,-5.9861225E-1,-7.3533E0,4.309783E0,-1.3892598E1,-1.7483059E0,8.205087E0,1.4342871E0,2.774537E1,5.993932E0,-4.071388E0,9.542207E-2,-3.4853306E0,-7.1503043E0,1.6247314E1,-6.1524076E0,1.000825E0,-4.0999827E0,1.5296581E1,1.9868187E0,3.4185588E-1,-9.684767E0,1.4060252E1,7.2437054E-1],"split_indices":[0,1,1,0,1,0,1,0,0,1,1,0,0,0,1,0,0,1,0,0,0,0,1,0,1,0,0,0,0,1,1,1,0,1,0,1,0,1,1,0,0,0,0,0,0,0,0,0,0,1,1,0,1,0,1,0,0,0,0,1,0,0,1,0,0,0,0,0,0,0,0,0,0,0,0,0,0,0,0,0,0,0,0,0,0,0,0,0,0,0,0,0,0,0,0,0,0,0,0,0,0,0,0,0,0,0,0,0,0,0,0,0,0,0,0,0,0,0,0,0,0],"split_type":[0,0,0,0,0,0,0,0,0,0,0,0,0,0,0,0,0,0,0,0,0,0,0,0,0,0,0,0,0,0,0,0,0,0,0,0,0,0,0,0,0,0,0,0,0,0,0,0,0,0,0,0,0,0,0,0,0,0,0,0,0,0,0,0,0,0,0,0,0,0,0,0,0,0,0,0,0,0,0,0,0,0,0,0,0,0,0,0,0,0,0,0,0,0,0,0,0,0,0,0,0,0,0,0,0,0,0,0,0,0,0,0,0,0,0,0,0,0,0,0,0],"sum_hessian":[3.063E4,1.0559E4,2.0071E4,7.713E3,2.846E3,7.992E3,1.2079E4,3.118E3,4.595E3,1.24E2,2.722E3,6.01E3,1.982E3,1.21E2,1.1958E4,2.211E3,9.07E2,1.794E3,2.801E3,6.6E1,5.8E1,1.93E2,2.529E3,5.529E3,4.81E2,1.01E3,9.72E2,7.1E1,5E1,2.658E3,9.3E3,1.284E3,9.27E2,3.75E2,5.32E2,1.68E3,1.14E2,1.207E3,1.594E3,1.1E1,5.5E1,1.4E1,4.4E1,1.57E2,3.6E1,2.28E2,2.301E3,4.7E2,5.059E3,3.8E2,1.01E2,9.27E2,8.3E1,7.44E2,2.28E2,4E0,6.7E1,3.4E1,1.6E1,1.165E3,1.493E3,4.25E2,8.875E3,1.2E1,1.272E3,4.66E2,4.61E2,2.39E2,1.36E2,2.5E2,2.82E2,1.66E3,2E1,2.2E1,9.2E1,1.119E3,8.8E1,1.385E3,2.09E2,2E0,9E0,2.1E1,3.4E1,6E0,8E0,6E0,3.8E1,6.4E1,9.3E1,2.1E1,1.5E1,9E0,2.19E2,8.24E2,1.477E3,2.66E2,2.04E2,2.73E2,4.786E3,2.78E2,1.02E2,7.3E1,2.8E1,2.08E2,7.19E2,6.4E1,1.9E1,2.13E2,5.31E2,1.64E2,6.4E1,4E1,2.7E1,8E2,3.65E2,6.37E2,8.56E2,2.16E2,2.09E2,8.7E1,8.788E3],"tree_param":{"num_deleted":"0","num_feature":"2","num_nodes":"121","size_leaf_vector":"1"}},{"base_weights":[1.1669589E-2,-2.8038042E0,2.4322822E0,-5.223169E0,3.853877E0,3.1173758E1,1.1774316E0,-3.628821E0,-1.6238771E1,3.982594E1,1.9785277E0,1.5013896E1,8.407681E1,3.0955918E0,-6.112869E0,-4.547854E0,9.976179E1,-1.5901568E1,-6.925728E1,1.6039549E1,6.9437325E1,5.2382135E0,-1.1062972E1,2.226381E1,-3.8965843E1,1.0750498E2,-4.7672626E1,2.6167677E1,9.326915E-1,-3.6975243E1,-2.2582588E0,-3.6813762E0,-2.0729847E1,8.1416E1,3.803039E1,-1.4396216E1,-2.377888E1,-2.4277649E1,1.8630387E0,-1.6145988E1,2.1168598E1,4.463721E1,9.9063484E1,-2.2304444E0,1.6423656E1,-7.3618712E0,-2.2679956E1,1.3287012E1,5.0418076E1,-4.5628593E1,2.7287522E-1,5.0692287E1,9.856225E1,-2.5107132E1,-1.8081388E1,2.8634548E1,-2.2224873E1,-1.7763737E0,7.9519596E0,-4.8218086E1,1.7684399E1,-1.9476246E1,2.5652728E0,-1.545522E0,2.99498E0,-4.614362E0,-1.15542145E1,1.6095726E1,-1.093084E1,-5.1470513E0,-9.8648906E-1,-2.1259563E0,-9.197229E0,2.204361E-2,-7.278921E0,2.7508537E1,5.0616097E0,2.5305948E1,7.5695596E0,3.44244E1,2.1391747E1,2.071252E-1,-7.824793E0,3.0527034E0,1.7897533E1,-5.559866E0,-9.3676215E-1,-7.5193915E0,4.415557E0,-7.2382843E-1,1.2510592E1,-6.26816E0,-1.7224672E1,3.5329804E0,3.346526E1,1.3211434E0,-2.4304995E1,3.8466272E0,1.1817854E1,-8.081784E-1,8.346575E0,8.431578E0,-1.4690249E0,-7.567509E0,-2.244252E1,1.4312861E1,-3.8680139E0,-1.5274467E1,-4.7317944E0,5.974449E0,-1.1893655E0],"categories":[],"categories_nodes":[],"categories_segments":[],"categories_sizes":[],"default_left":[0,0,0,0,0,0,0,0,0,0,0,0,0,0,0,0,0,0,0,0,0,0,0,0,0,0,0,0,0,0,0,0,0,0,0,0,0,0,0,0,0,0,0,0,0,0,0,0,0,0,0,0,0,0,0,0,0,0,0,0,0,0,0,0,0,0,0,0,0,0,0,0,0,0,0,0,0,0,0,0,0,0,0,0,0,0,0,0,0,0,0,0,0,0,0,0,0,0,0,0,0,0,0,0,0,0,0,0,0,0,0],"id":5,"left_children":[1,3,5,7,9,11,13,15,17,19,21,23,25,27,29,31,33,35,37,39,41,43,45,47,49,51,53,55,57,59,61,63,65,-1,67,69,71,-1,-1,73,75,77,79,81,83,85,87,89,-1,91,-1,-1,93,-1,95,97,-1,99,101,103,105,107,109,-1,-1,-1,-1,-1,-1,-1,-1,-1,-1,-1,-1,-1,-1,-1,-1,-1,-1,-1,-1,-1,-1,-1,-1,-1,-1,-1,-1,-1,-1,-1,-1,-1,-1,-1,-1,-1,-1,-1,-1,-1,-1,-1,-1,-1,-1,-1,-1],"loss_changes":[2.0876233E5,2.2811644E5,5.940106E5,1.8236488E5,2.545834E5,5.8776806E5,2.2072783E5,8.6275444E5,2.23725E4,1.3059931E5,1.5263064E5,2.0789088E5,5.0207538E5,6.2355875E5,3.9106488E5,1.2605959E5,8.372505E5,1.5144375E4,7.547121E3,1.7675316E4,5.6560875E4,2.3996422E5,3.0703898E4,6.089696E5,1.6779344E4,5.8654875E4,2.5132043E4,2.669852E5,2.17287E5,2.251561E5,2.4289256E5,1.7163705E5,4.2878062E4,0E0,7.175395E4,3.3644156E4,2.3665148E4,0E0,0E0,1.9766035E3,2.6027906E4,3.4094594E4,7.9263125E3,1.2005765E5,3.1004253E5,2.5799395E4,1.5797656E4,1.968344E5,0E0,1.45439375E4,0E0,0E0,1.3620788E5,0E0,2.1583459E4,1.7743538E5,0E0,2.2399297E5,8.240971E5,1.8336494E5,5.8455562E4,7.371605E4,2.5894562E5,0E0,0E0,0E0,0E0,0E0,0E0,0E0,0E0,0E0,0E0,0E0,0E0,0E0,0E0,0E0,0E0,0E0,0E0,0E0,0E0,0E0,0E0,0E0,0E0,0E0,0E0,0E0,0E0,0E0,0E0,0E0,0E0,0E0,0E0,0E0,0E0,0E0,0E0,0E0,0E0,0E0,0E0,0E0,0E0,0E0,0E0,0E0,0E0],"parents":[2147483647,0,0,1,1,2,2,3,3,4,4,5,5,6,6,7,7,8,8,9,9,10,10,11,11,12,12,13,13,14,14,15,15,16,16,17,17,18,18,19,19,20,20,21,21,22,22,23,23,24,24,25,25,26,26,27,27,28,28,29,29,30,30,31,31,32,32,34,34,35,35,36,36,39,39,40,40,41,41,42,42,43,43,44,44,45,45,46,46,47,47,49,49,52,52,54,54,55,55,57,57,58,58,59,59,60,60,61,61,62,62],"right_children":[2,4,6,8,10,12,14,16,18,20,22,24,26,28,30,32,34,36,38,40,42,44,46,48,50,52,54,56,58,60,62,64,66,-1,68,70,72,-1,-1,74,76,78,80,82,84,86,88,90,-1,92,-1,-1,94,-1,96,98,-1,100,102,104,106,108,110,-1,-1,-1,-1,-1,-1,-1,-1,-1,-1,-1,-1,-1,-1,-1,-1,-1,-1,-1,-1,-1,-1,-1,-1,-1,-1,-1,-1,-1,-1,-1,-1,-1,-1,-1,-1,-1,-1,-1,-1,-1,-1,-1,-1,-1,-1,-1,-1],"split_conditions":[1.73E2,2.41E2,1.8E2,1.52E2,2.47E2,2.87E2,2.54E2,1.5E2,2.39E2,2.46E2,3.19E2,2.54E2,3.27E2,1.92E2,1.92E2,1.25E2,1.6E2,2.07E2,1.6E2,2.6E1,9.2E1,2.98E2,9.8E1,2.46E2,2.85E2,2.88E2,3.3E2,2.51E2,2.98E2,3.17E2,2.85E2,1.12E2,2.07E2,8.1416E1,2.33E2,1.82E2,1.6E2,-2.4277649E1,1.8630387E0,2.1E1,2.45E2,2.6E1,1.25E2,2.89E2,1.5E2,4.3E1,1.66E2,1.82E2,5.0418076E1,2.68E2,2.7287522E-1,5.0692287E1,2.91E2,-2.5107132E1,3.32E2,1.12E2,-2.2224873E1,2.51E2,3.09E2,2.99E2,3.32E2,1.96E2,2.34E2,-1.545522E0,2.99498E0,-4.614362E0,-1.15542145E1,1.6095726E1,-1.093084E1,-5.1470513E0,-9.8648906E-1,-2.1259563E0,-9.197229E0,2.204361E-2,-7.278921E0,2.7508537E1,5.0616097E0,2.5305948E1,7.5695596E0,3.44244E1,2.1391747E1,2.071252E-1,-7.824793E0,3.0527034E0,1.7897533E1,-5.559866E0,-9.3676215E-1,-7.5193915E0,4.415557E0,-7.2382843E-1,1.2510592E1,-6.26816E0,-1.7224672E1,3.5329804E0,3.346526E1,1.3211434E0,-2.4304995E1,3.8466272E0,1.1817854E1,-8.081784E-1,8.346575E0,8.431578E0,-1.4690249E0,-7.567509E0,-2.244252E1,1.4312861E1,-3.8680139E0,-1.5274467E1,-4.7317944E0,5.974449E0,-1.1893655E0],"split_indices":[0,1,0,0,1,1,1,0,1,1,1,1,1,0,0,0,1,1,0,0,0,1,0,1,1,1,1,1,0,1,1,0,1,0,1,1,0,0,0,0,1,0,0,1,0,0,0,1,0,1,0,0,1,0,1,1,0,1,0,1,1,0,0,0,0,0,0,0,0,0,0,0,0,0,0,0,0,0,0,0,0,0,0,0,0,0,0,0,0,0,0,0,0,0,0,0,0,0,0,0,0,0,0,0,0,0,0,0,0,0,0],"split_type":[0,0,0,0,0,0,0,0,0,0,0,0,0,0,0,0,0,0,0,0,0,0,0,0,0,0,0,0,0,0,0,0,0,0,0,0,0,0,0,0,0,0,0,0,0,0,0,0,0,0,0,0,0,0,0,0,0,0,0,0,0,0,0,0,0,0,0,0,0,0,0,0,0,0,0,0,0,0,0,0,0,0,0,0,0,0,0,0,0,0,0,0,0,0,0,0,0,0,0,0,0,0,0,0,0,0,0,0,0,0,0],"sum_hessian":[3.063E4,1.416E4,1.647E4,1.0386E4,3.774E3,6.88E2,1.5782E4,9.074E3,1.312E3,1.86E2,3.588E3,5.28E2,1.6E2,1.2495E4,3.287E3,8.995E3,7.9E1,1.305E3,7E0,1.04E2,8.2E1,2.871E3,7.17E2,4.66E2,6.2E1,1.36E2,2.4E1,1.07E3,1.1425E4,3.64E2,2.923E3,8.539E3,4.56E2,2E1,5.9E1,1.098E3,2.07E2,6E0,1E0,1.4E1,9E1,4.6E1,3.6E1,1.722E3,1.149E3,5.45E2,1.72E2,4.4E2,2.6E1,5.3E1,9E0,1.5E1,1.21E2,1E1,1.4E1,1.045E3,2.5E1,8.244E3,3.181E3,3.02E2,6.2E1,6.39E2,2.284E3,7.71E3,8.29E2,3.52E2,1.04E2,4.9E1,1E1,8.79E2,2.19E2,6.1E1,1.46E2,5E0,9E0,4E0,8.6E1,1.4E1,3.2E1,2.1E1,1.5E1,1.535E3,1.87E2,1.005E3,1.44E2,1.49E2,3.96E2,1.62E2,1E1,2.84E2,1.56E2,1.8E1,3.5E1,1.6E1,1.05E2,1.1E1,3E0,4.24E2,6.21E2,7.997E3,2.47E2,1.238E3,1.943E3,1.63E2,1.39E2,3.1E1,3.1E1,6.6E1,5.73E2,6.24E2,1.66E3],"tree_param":{"num_deleted":"0","num_feature":"2","num_nodes":"111","size_leaf_vector":"1"}},{"base_weights":[1.4745967E-2,-3.8637886E0,1.2195272E0,8.332047E-2,-8.325158E0,-6.471723E0,2.0836916E0,-4.2995863E0,2.5282969E1,-2.2289047E1,-7.014353E0,-3.7340102E0,-5.801977E1,5.128646E1,1.055694E0,-9.444296E-1,-1.3618808E1,1.4945476E1,7.89429E1,1.6863105E0,-3.2472183E1,-1.3820935E1,-4.562349E0,-3.2620613E1,-2.2147639E0,-3.449669E1,-9.332117E1,3.688192E1,1.0529382E2,-2.0300539E1,1.342691E0,-5.594993E0,1.54081955E1,-7.798391E0,-2.4356241E1,1.7655973E1,-1.1648366E1,1.2083416E2,3.9715187E1,-1.2682544E1,5.4535442E1,-2.2607246E1,-5.1174454E1,-8.521282E0,-1.8960737E1,1.1823243E1,-6.3596234E0,-4.948205E1,-1.872073E1,1.9820532E1,-3.1843975E0,-9.101031E0,-4.1465626E1,-2.8891539E1,-1.115019E1,9.309037E1,3.1946966E1,1.5473868E2,5.880586E1,-5.6236367E0,-5.502081E1,3.3753102E0,-8.278766E-1,-5.5153966E0,-8.161632E-1,-4.67409E0,5.302519E0,-4.2692776E0,-7.3836225E-1,-5.042164E0,-1.5125897E1,4.3815613E0,3.4739967E1,-6.988013E0,7.9388633E0,2.4127575E1,4.1688614E1,1.7977919E1,6.3081903E0,-3.2212348E0,-6.6417594E0,2.040227E1,8.2531E0,-1.4201378E1,-3.5429087E0,2.7751253E1,-1.9826912E1,-3.5407445E0,1.0116093E0,-7.1266513E0,-1.2767463E0,7.0558243E0,3.5944918E-1,-2.528361E0,1.462471E0,-9.622984E0,-2.533915E1,2.21431E0,-1.3770776E1,-5.0565596E0,8.961768E0,-1.519216E0,1.5244783E0,-8.147035E0,1.1899238E1,-2.197099E1,-7.0958543E0,3.6986435E1,2.0422426E1,-5.400764E0,1.0838513E1,3.0629526E1,5.7647434E1,2.0673237E1,1.1440782E1,-6.507412E0,2.677189E0,1.4307371E1,-2.3158453E1,7.12366E-1,8.391316E0,-6.6789746E0,-2.9719085E-2],"categories":[],"categories_nodes":[],"categories_segments":[],"categories_sizes":[],"default_left":[0,0,0,0,0,0,0,0,0,0,0,0,0,0,0,0,0,0,0,0,0,0,0,0,0,0,0,0,0,0,0,0,0,0,0,0,0,0,0,0,0,0,0,0,0,0,0,0,0,0,0,0,0,0,0,0,0,0,0,0,0,0,0,0,0,0,0,0,0,0,0,0,0,0,0,0,0,0,0,0,0,0,0,0,0,0,0,0,0,0,0,0,0,0,0,0,0,0,0,0,0,0,0,0,0,0,0,0,0,0,0,0,0,0,0,0,0,0,0,0,0,0,0],"id":6,"left_children":[1,3,5,7,9,11,13,15,17,19,21,23,25,27,29,31,33,35,37,39,41,43,45,47,49,51,53,55,57,59,61,63,65,67,69,71,73,75,77,79,81,83,85,87,89,91,93,95,97,99,101,103,105,-1,-1,107,109,111,113,115,117,119,121,-1,-1,-1,-1,-1,-1,-1,-1,-1,-1,-1,-1,-1,-1,-1,-1,-1,-1,-1,-1,-1,-1,-1,-1,-1,-1,-1,-1,-1,-1,-1,-1,-1,-1,-1,-1,-1,-1,-1,-1,-1,-1,-1,-1,-1,-1,-1,-1,-1,-1,-1,-1,-1,-1,-1,-1,-1,-1,-1,-1],"loss_changes":[1.4313681E5,1.2784576E5,1.5535558E5,4.2566372E5,6.2223516E4,3.3297653E5,1.0627396E6,1.0263817E5,3.1555916E5,7.134489E4,5.1958953E4,9.836376E4,9.559803E4,3.3063562E5,1.2618406E5,1.8374436E5,5.411939E4,3.480529E4,1.4638444E5,6.751721E4,3.666492E4,2.2310734E4,6.76027E4,2.5323328E4,4.561578E4,1.2542211E4,4.2959688E3,9.161469E4,1.9777362E5,1.3880756E5,8.961366E4,6.9101625E4,3.7857406E4,1.936234E4,5.916236E4,1.28853484E5,2.0587666E4,2.1055188E4,1.7247445E4,1.0498682E3,5.046715E3,3.5757133E4,1.5612373E5,1.5961723E4,2.9370672E4,2.8181729E4,4.8069414E4,2.7734344E4,4.5036945E4,3.3683406E4,3.1768266E4,1.6045503E4,3.0525742E4,0E0,0E0,1.2003406E4,6.644109E4,6.5080938E4,7.397703E3,4.5306742E4,1.8816225E5,2.5811361E5,1.534564E5,0E0,0E0,0E0,0E0,0E0,0E0,0E0,0E0,0E0,0E0,0E0,0E0,0E0,0E0,0E0,0E0,0E0,0E0,0E0,0E0,0E0,0E0,0E0,0E0,0E0,0E0,0E0,0E0,0E0,0E0,0E0,0E0,0E0,0E0,0E0,0E0,0E0,0E0,0E0,0E0,0E0,0E0,0E0,0E0,0E0,0E0,0E0,0E0,0E0,0E0,0E0,0E0,0E0,0E0,0E0,0E0,0E0,0E0,0E0,0E0],"parents":[2147483647,0,0,1,1,2,2,3,3,4,4,5,5,6,6,7,7,8,8,9,9,10,10,11,11,12,12,13,13,14,14,15,15,16,16,17,17,18,18,19,19,20,20,21,21,22,22,23,23,24,24,25,25,26,26,27,27,28,28,29,29,30,30,31,31,32,32,33,33,34,34,35,35,36,36,37,37,38,38,39,39,40,40,41,41,42,42,43,43,44,44,45,45,46,46,47,47,48,48,49,49,50,50,51,51,52,52,55,55,56,56,57,57,58,58,59,59,60,60,61,61,62,62],"right_children":[2,4,6,8,10,12,14,16,18,20,22,24,26,28,30,32,34,36,38,40,42,44,46,48,50,52,54,56,58,60,62,64,66,68,70,72,74,76,78,80,82,84,86,88,90,92,94,96,98,100,102,104,106,-1,-1,108,110,112,114,116,118,120,122,-1,-1,-1,-1,-1,-1,-1,-1,-1,-1,-1,-1,-1,-1,-1,-1,-1,-1,-1,-1,-1,-1,-1,-1,-1,-1,-1,-1,-1,-1,-1,-1,-1,-1,-1,-1,-1,-1,-1,-1,-1,-1,-1,-1,-1,-1,-1,-1,-1,-1,-1,-1,-1,-1,-1,-1,-1,-1,-1,-1],"split_conditions":[9.1E1,5.1E1,4.4E1,4.4E1,5.6E1,4.3E1,4.7E1,2.7E1,2.87E2,9.8E1,9.1E1,6E0,2.88E2,2.87E2,5.6E1,2.3E1,2.33E2,2.54E2,3.04E2,5.5E1,5.5E1,5.4E1,9.9E1,1.91E2,9.2E1,9.8E1,3.13E2,9.8E1,3.06E2,5.5E1,2.17E2,1.7E1,2.3E1,4.2E1,4.3E1,2.51E2,2.84E2,2.98E2,3.19E2,9.2E1,8.8E1,5.4E1,1.8E2,4.3E1,8.6E1,7.1E1,2.98E2,1.62E2,2.5E2,2.1E1,2.98E2,9.2E1,1.91E2,-2.8891539E1,-1.115019E1,9.2E1,1.13E2,2.98E2,3.27E2,1.74E2,1.74E2,2.16E2,2.27E2,-5.5153966E0,-8.161632E-1,-4.67409E0,5.302519E0,-4.2692776E0,-7.3836225E-1,-5.042164E0,-1.5125897E1,4.3815613E0,3.4739967E1,-6.988013E0,7.9388633E0,2.4127575E1,4.1688614E1,1.7977919E1,6.3081903E0,-3.2212348E0,-6.6417594E0,2.040227E1,8.2531E0,-1.4201378E1,-3.5429087E0,2.7751253E1,-1.9826912E1,-3.5407445E0,1.0116093E0,-7.1266513E0,-1.2767463E0,7.0558243E0,3.5944918E-1,-2.528361E0,1.462471E0,-9.622984E0,-2.533915E1,2.21431E0,-1.3770776E1,-5.0565596E0,8.961768E0,-1.519216E0,1.5244783E0,-8.147035E0,1.1899238E1,-2.197099E1,-7.0958543E0,3.6986435E1,2.0422426E1,-5.400764E0,1.0838513E1,3.0629526E1,5.7647434E1,2.0673237E1,1.1440782E1,-6.507412E0,2.677189E0,1.4307371E1,-2.3158453E1,7.12366E-1,8.391316E0,-6.6789746E0,-2.9719085E-2],"split_indices":[1,1,0,1,1,0,0,1,0,0,0,0,1,1,0,1,0,0,0,1,1,0,0,1,1,1,1,1,1,0,1,1,0,1,1,0,0,0,0,0,0,1,0,0,1,1,0,1,1,0,1,1,1,0,0,1,1,1,1,1,1,1,1,0,0,0,0,0,0,0,0,0,0,0,0,0,0,0,0,0,0,0,0,0,0,0,0,0,0,0,0,0,0,0,0,0,0,0,0,0,0,0,0,0,0,0,0,0,0,0,0,0,0,0,0,0,0,0,0,0,0,0,0],"split_type":[0,0,0,0,0,0,0,0,0,0,0,0,0,0,0,0,0,0,0,0,0,0,0,0,0,0,0,0,0,0,0,0,0,0,0,0,0,0,0,0,0,0,0,0,0,0,0,0,0,0,0,0,0,0,0,0,0,0,0,0,0,0,0,0,0,0,0,0,0,0,0,0,0,0,0,0,0,0,0,0,0,0,0,0,0,0,0,0,0,0,0,0,0,0,0,0,0,0,0,0,0,0,0,0,0,0,0,0,0,0,0,0,0,0,0,0,0,0,0,0,0,0,0],"sum_hessian":[3.063E4,7.259E3,2.3371E4,3.852E3,3.407E3,2.36E3,2.1011E4,3.282E3,5.7E2,2.91E2,3.116E3,2.242E3,1.18E2,4.29E2,2.0582E4,2.414E3,8.68E2,4.79E2,9.1E1,8.7E1,2.04E2,8.24E2,2.292E3,1.11E2,2.131E3,7.2E1,4.6E1,3.4E2,8.9E1,2.72E2,2.031E4,1.88E3,5.34E2,5.64E2,3.04E2,4.35E2,4.4E1,4.3E1,4.8E1,6.9E1,1.8E1,1.35E2,6.9E1,4.07E2,4.17E2,2.26E2,2.066E3,4.9E1,6.2E1,8.9E1,2.042E3,1.6E1,5.6E1,4.3E1,3E0,2.6E1,3.14E2,4.2E1,4.7E1,1.92E2,8E1,1.0488E4,9.822E3,3.44E2,1.536E3,3.6E1,4.98E2,2.55E2,3.09E2,2.37E2,6.7E1,4.23E2,1.2E1,3.4E1,1E1,1.5E1,2.8E1,2.2E1,2.6E1,5.9E1,1E1,1.1E1,7E0,4E1,9.5E1,6E0,6.3E1,3.19E2,8.8E1,3.14E2,1.03E2,1.07E2,1.19E2,1.745E3,3.21E2,3.4E1,1.5E1,3.2E1,3E1,1.9E1,7E1,1.664E3,3.78E2,1.2E1,4E0,1.9E1,3.7E1,1E1,1.6E1,2.4E1,2.9E2,1.9E1,2.3E1,3E1,1.7E1,9.1E1,1.01E2,1.4E1,6.6E1,1.0079E4,4.09E2,3.22E2,9.5E3],"tree_param":{"num_deleted":"0","num_feature":"2","num_nodes":"123","size_leaf_vector":"1"}},{"base_weights":[1.5828177E-2,-1.8954346E0,1.6590421E0,-1.064955E0,-1.1555014E1,2.1816805E1,7.7895856E-1,-1.9395484E0,1.4127369E1,2.6558638E1,-1.2061021E1,1.0419595E1,5.9129276E1,2.1047351E0,-4.2598743E0,-1.0513821E0,-1.9613781E1,9.8467606E1,-3.7130337E0,9.91344E0,1.4962259E1,-1.0913933E1,-2.7263454E1,1.5528343E1,-2.761541E1,8.014281E1,-2.480632E1,1.576518E1,6.1318006E-2,-2.5906631E1,-1.5562743E0,-1.880992E0,1.8045372E1,-1.469774E1,-5.0324493E1,5.780211E1,7.849841E1,-1.0927555E1,3.0294304E1,5.937067E0,-1.176416E0,-1.3147541E1,1.8914083E0,-3.875258E1,-1.15933075E1,9.125185E0,3.5861443E1,-1.7494179E1,-1.9248817E1,7.123025E1,3.7546425E1,7.004435E0,-3.5265938E1,1.6764235E1,-4.402199E1,-2.385523E1,9.488002E-1,-3.3788464E1,1.3927234E1,-1.0290692E1,3.5199718E0,-4.563705E-1,-9.79686E0,4.046578E0,1.3538478E1,-3.2526858E0,-6.965546E0,-1.7577072E1,4.2663994E0,5.3885245E0,4.5459915E1,-2.2281947E0,-1.5229646E1,-5.8970246E0,2.128516E1,-3.3521826E0,-6.9894643E0,4.223968E0,-1.942684E0,-8.83715E0,-2.148852E1,-6.6393323E0,6.041211E0,4.391342E0,-1.2671708E1,2.0333977E1,-9.707662E0,2.463967E1,-9.873407E-1,-3.5388026E0,7.321198E0,-1.8251625E1,-4.2484446E0,2.1600645E0,7.219127E0,-1.5805278E1,2.717954E1,8.306227E-1,-9.00434E0,-8.2766914E-1,9.949575E-1,4.8463726E0,-1.2816309E1,9.38695E0,-5.482254E0,-1.9240078E0,-1.0137929E1,9.702401E0,-5.5757314E-1],"categories":[],"categories_nodes":[],"categories_segments":[],"categories_sizes":[],"default_left":[0,0,0,0,0,0,0,0,0,0,0,0,0,0,0,0,0,0,0,0,0,0,0,0,0,0,0,0,0,0,0,0,0,0,0,0,0,0,0,0,0,0,0,0,0,0,0,0,0,0,0,0,0,0,0,0,0,0,0,0,0,0,0,0,0,0,0,0,0,0,0,0,0,0,0,0,0,0,0,0,0,0,0,0,0,0,0,0,0,0,0,0,0,0,0,0,0,0,0,0,0,0,0,0,0,0,0,0,0],"id":7,"left_children":[1,3,5,7,9,11,13,15,17,19,21,23,25,27,29,31,33,35,37,39,-1,41,43,45,47,49,51,53,55,57,59,61,63,65,67,-1,69,71,73,-1,-1,75,77,79,81,83,-1,-1,85,87,-1,89,91,93,95,97,99,101,103,105,107,-1,-1,-1,-1,-1,-1,-1,-1,-1,-1,-1,-1,-1,-1,-1,-1,-1,-1,-1,-1,-1,-1,-1,-1,-1,-1,-1,-1,-1,-1,-1,-1,-1,-1,-1,-1,-1,-1,-1,-1,-1,-1,-1,-1,-1,-1,-1,-1],"loss_changes":[9.620328E4,1.1358841E5,2.92187E5,1.7330455E5,2.1939688E4,2.923867E5,1.0544519E5,1.9356292E5,1.0686769E6,5.326954E3,1.9006906E4,1.0321949E5,2.8595712E5,3.4881222E5,1.9238714E5,1.8607664E5,8.833567E4,2.1814662E5,1.4434952E5,1.4440408E3,0E0,2.9513664E4,1.3413527E4,3.09927E5,1.5058566E4,4.2836375E4,1.1227055E4,9.786006E4,2.3076516E5,1.1506741E5,1.29680695E5,1.2456114E5,5.973914E4,1.6502453E4,4.4048312E4,0E0,4.5709062E5,6.725245E4,2.1056925E5,0E0,0E0,1.7328969E4,1.5796298E4,1.133618E4,1.1814293E4,1.2548807E5,0E0,0E0,6.0381805E4,8.963775E4,0E0,3.2319438E3,1.2630941E4,1.1152719E5,3.6258305E4,6.3872625E4,9.203738E4,1.3675653E5,3.4676902E4,9.774444E4,2.8684178E5,0E0,0E0,0E0,0E0,0E0,0E0,0E0,0E0,0E0,0E0,0E0,0E0,0E0,0E0,0E0,0E0,0E0,0E0,0E0,0E0,0E0,0E0,0E0,0E0,0E0,0E0,0E0,0E0,0E0,0E0,0E0,0E0,0E0,0E0,0E0,0E0,0E0,0E0,0E0,0E0,0E0,0E0,0E0,0E0,0E0,0E0,0E0,0E0],"parents":[2147483647,0,0,1,1,2,2,3,3,4,4,5,5,6,6,7,7,8,8,9,9,10,10,11,11,12,12,13,13,14,14,15,15,16,16,17,17,18,18,19,19,21,21,22,22,23,23,24,24,25,25,26,26,27,27,28,28,29,29,30,30,31,31,32,32,33,33,34,34,36,36,37,37,38,38,41,41,42,42,43,43,44,44,45,45,48,48,49,49,51,51,52,52,53,53,54,54,55,55,56,56,57,57,58,58,59,59,60,60],"right_children":[2,4,6,8,10,12,14,16,18,20,22,24,26,28,30,32,34,36,38,40,-1,42,44,46,48,50,52,54,56,58,60,62,64,66,68,-1,70,72,74,-1,-1,76,78,80,82,84,-1,-1,86,88,-1,90,92,94,96,98,100,102,104,106,108,-1,-1,-1,-1,-1,-1,-1,-1,-1,-1,-1,-1,-1,-1,-1,-1,-1,-1,-1,-1,-1,-1,-1,-1,-1,-1,-1,-1,-1,-1,-1,-1,-1,-1,-1,-1,-1,-1,-1,-1,-1,-1,-1,-1,-1,-1,-1,-1],"split_conditions":[1.73E2,1.6E2,1.8E2,1.5E2,2.1E1,2.87E2,2.54E2,1.25E2,1.52E2,1.7E1,3.09E2,2.54E2,3.17E2,1.94E2,1.92E2,1.2E2,2.88E2,1.6E2,2.87E2,3E0,1.4962259E1,2.39E2,3.21E2,2.46E2,2.62E2,3.09E2,3.27E2,2.51E2,2.05E2,3.19E2,2.98E2,1.15E2,2.8E2,2.07E2,3.17E2,5.780211E1,2.34E2,2.56E2,1.58E2,5.937067E0,-1.176416E0,2.1E2,2.54E2,1.66E2,1.66E2,2.33E2,3.5861443E1,-1.7494179E1,2.68E2,3.08E2,3.7546425E1,3.19E2,3.3E2,1.12E2,1.92E2,1.96E2,2.45E2,2.8E2,3.34E2,2.89E2,2.99E2,-4.563705E-1,-9.79686E0,4.046578E0,1.3538478E1,-3.2526858E0,-6.965546E0,-1.7577072E1,4.2663994E0,5.3885245E0,4.5459915E1,-2.2281947E0,-1.5229646E1,-5.8970246E0,2.128516E1,-3.3521826E0,-6.9894643E0,4.223968E0,-1.942684E0,-8.83715E0,-2.148852E1,-6.6393323E0,6.041211E0,4.391342E0,-1.2671708E1,2.0333977E1,-9.707662E0,2.463967E1,-9.873407E-1,-3.5388026E0,7.321198E0,-1.8251625E1,-4.2484446E0,2.1600645E0,7.219127E0,-1.5805278E1,2.717954E1,8.306227E-1,-9.00434E0,-8.2766914E-1,9.949575E-1,4.8463726E0,-1.2816309E1,9.38695E0,-5.482254E0,-1.9240078E0,-1.0137929E1,9.702401E0,-5.5757314E-1],"split_indices":[0,0,0,0,1,1,1,0,0,1,1,1,1,0,0,0,1,1,1,1,0,1,1,1,1,1,1,1,0,1,1,0,1,1,1,0,1,1,0,0,0,1,1,0,0,1,0,0,1,1,0,1,1,1,0,0,0,1,1,1,1,0,0,0,0,0,0,0,0,0,0,0,0,0,0,0,0,0,0,0,0,0,0,0,0,0,0,0,0,0,0,0,0,0,0,0,0,0,0,0,0,0,0,0,0,0,0,0,0],"split_type":[0,0,0,0,0,0,0,0,0,0,0,0,0,0,0,0,0,0,0,0,0,0,0,0,0,0,0,0,0,0,0,0,0,0,0,0,0,0,0,0,0,0,0,0,0,0,0,0,0,0,0,0,0,0,0,0,0,0,0,0,0,0,0,0,0,0,0,0,0,0,0,0,0,0,0,0,0,0,0,0,0,0,0,0,0,0,0,0,0,0,0,0,0,0,0,0,0,0,0,0,0,0,0,0,0,0,0,0,0],"sum_hessian":[3.063E4,1.416E4,1.647E4,1.304E4,1.12E3,6.88E2,1.5782E4,1.2331E4,7.09E2,1.4E1,1.106E3,5.28E2,1.6E2,1.2495E4,3.287E3,1.1742E4,5.89E2,1.23E2,5.86E2,9E0,5E0,1.03E3,7.6E1,4.66E2,6.2E1,1.28E2,3.2E1,1.625E3,1.087E4,3.64E2,2.923E3,1.1254E4,4.88E2,5.09E2,8E1,2E1,1.03E2,4.84E2,1.02E2,5E0,4E0,8.77E2,1.53E2,4.3E1,3.3E1,4.4E2,2.6E1,1.2E1,5E1,1.09E2,1.9E1,8E0,2.4E1,1.599E3,2.6E1,3.88E2,1.0482E4,3.04E2,6E1,1.074E3,1.849E3,1.1125E4,1.29E2,4.19E2,6.9E1,3.52E2,1.57E2,7.1E1,9E0,5.7E1,4.6E1,4.46E2,3.8E1,4.6E1,5.6E1,7.36E2,1.41E2,6.2E1,9.1E1,3.5E1,8E0,2.5E1,8E0,3.98E2,4.2E1,6E0,4.4E1,9.5E1,1.4E1,4E0,4E0,1E1,1.4E1,6.93E2,9.06E2,2.5E1,1E0,7.3E1,3.15E2,4.085E3,6.397E3,4.6E1,2.58E2,3.9E1,2.1E1,9.23E2,1.51E2,2.9E2,1.559E3],"tree_param":{"num_deleted":"0","num_feature":"2","num_nodes":"109","size_leaf_vector":"1"}},{"base_weights":[1.5652012E-2,-2.700175E0,8.592636E-1,1.2591475E-2,-5.7663693E0,3.2694538E0,-6.5545636E-1,-3.0264392E0,1.7485666E1,-1.6075779E1,-4.7987356E0,1.393392E0,2.4992674E1,-1.1761033E1,3.4851593E-1,-6.2148416E-1,-9.706463E0,1.0210067E1,5.5255253E1,1.845153E0,-2.3690247E1,-9.944991E0,-3.2543604E0,6.621138E0,-3.2682553E-1,3.714511E1,-1.6869972E1,-1.8096655E1,-4.953199E0,1.3866394E1,-5.26102E-1,-3.8410394E0,1.0699273E1,-6.900983E0,-2.5043228E1,1.3247933E1,-6.6361756E0,8.5107376E1,2.7321602E1,-8.568829E0,4.011534E1,-2.560379E1,7.989364E0,-5.887165E0,-1.6958227E1,4.5742936E0,-4.514006E0,9.960288E0,-2.8666756E0,-1.08815975E1,1.558088E0,-4.2052277E1,4.0025562E1,-3.3232876E1,4.345351E1,-3.7877304E1,-1.6282328E1,2.2344084E1,-1.3707022E1,9.044055E0,4.9135998E1,-1.8039736E1,3.451642E-1,-1.6904352E0,2.1500964E0,-3.176551E0,3.6768854E0,-3.7041795E0,-8.0455637E-1,-1.9542713E0,-2.0074057E1,1.2610097E0,8.112444E0,-1.929843E1,3.509625E0,3.785649E1,2.2177446E1,1.2533526E1,4.198388E0,-3.8361585E0,-1.6868135E0,-2.545941E0,1.3899722E1,-5.583868E0,-1.6963743E1,1.3082498E0,-2.2075222E0,-7.799422E0,-3.7936265E0,2.0767938E-1,7.1292334E0,-4.0909066E0,-8.3940774E-1,2.6947527E0,2.4868048E1,-9.689677E0,-1.8587923E-1,-2.9775205E0,-1.024165E1,3.8723338E0,1.1372898E-1,-1.6656517E1,-6.909198E0,2.1711535E1,9.709959E0,-1.368897E0,-1.52873125E1,2.2911121E1,2.4367619E0,-1.020293E1,-1.9997023E1,-3.372862E0,-7.65591E0,1.1785509E1,3.3749835E0,-6.0138297E0,1.2709086E-1,3.2354603E0,-3.9071805E0,4.4091335E1,7.4023266E0,-3.9121907E0,-1.2749866E1,5.5676584E0,-1.2300403E-1],"categories":[],"categories_nodes":[],"categories_segments":[],"categories_sizes":[],"default_left":[0,0,0,0,0,0,0,0,0,0,0,0,0,0,0,0,0,0,0,0,0,0,0,0,0,0,0,0,0,0,0,0,0,0,0,0,0,0,0,0,0,0,0,0,0,0,0,0,0,0,0,0,0,0,0,0,0,0,0,0,0,0,0,0,0,0,0,0,0,0,0,0,0,0,0,0,0,0,0,0,0,0,0,0,0,0,0,0,0,0,0,0,0,0,0,0,0,0,0,0,0,0,0,0,0,0,0,0,0,0,0,0,0,0,0,0,0,0,0,0,0,0,0,0,0],"id":8,"left_children":[1,3,5,7,9,11,13,15,17,19,21,23,25,27,29,31,33,35,37,39,41,43,45,47,49,51,53,55,57,59,61,63,65,67,69,71,73,75,77,79,81,83,-1,85,87,89,91,93,95,97,99,101,103,105,107,109,111,113,115,117,119,121,123,-1,-1,-1,-1,-1,-1,-1,-1,-1,-1,-1,-1,-1,-1,-1,-1,-1,-1,-1,-1,-1,-1,-1,-1,-1,-1,-1,-1,-1,-1,-1,-1,-1,-1,-1,-1,-1,-1,-1,-1,-1,-1,-1,-1,-1,-1,-1,-1,-1,-1,-1,-1,-1,-1,-1,-1,-1,-1,-1,-1,-1,-1],"loss_changes":[7.01811E4,6.0387797E4,8.532778E4,2.0465188E5,3.392014E4,3.675672E5,1.6003561E5,5.2735875E4,1.5634455E5,3.9889547E4,2.4740766E4,7.4678875E4,3.6538838E5,5.1237297E4,1.5564498E5,8.806254E4,3.7217633E4,2.4652703E4,7.439159E4,3.5415703E4,2.0421773E4,2.036182E4,2.3677979E4,6.5165164E4,1.2433977E5,1.2852025E5,1.61349E5,2.149064E4,1.3770572E5,1.3562119E5,1.8868423E5,3.7181824E4,1.7862512E4,1.6879113E4,1.0352321E5,5.066229E4,7.9028055E4,1.0884719E4,8.855941E3,7.9804736E2,6.134248E3,4.17774E4,0E0,6.922408E3,9.924852E3,2.4790527E4,3.2318195E4,1.077218E5,3.5429184E4,2.0728367E4,7.095555E4,3.8455117E3,1.3069444E5,6.481311E4,4.008418E4,3.4096094E3,2.6061125E4,2.5870375E4,3.906333E4,2.7223906E4,2.2612088E5,7.110014E4,1.6203652E5,0E0,0E0,0E0,0E0,0E0,0E0,0E0,0E0,0E0,0E0,0E0,0E0,0E0,0E0,0E0,0E0,0E0,0E0,0E0,0E0,0E0,0E0,0E0,0E0,0E0,0E0,0E0,0E0,0E0,0E0,0E0,0E0,0E0,0E0,0E0,0E0,0E0,0E0,0E0,0E0,0E0,0E0,0E0,0E0,0E0,0E0,0E0,0E0,0E0,0E0,0E0,0E0,0E0,0E0,0E0,0E0,0E0,0E0,0E0,0E0,0E0,0E0],"parents":[2147483647,0,0,1,1,2,2,3,3,4,4,5,5,6,6,7,7,8,8,9,9,10,10,11,11,12,12,13,13,14,14,15,15,16,16,17,17,18,18,19,19,20,20,21,21,22,22,23,23,24,24,25,25,26,26,27,27,28,28,29,29,30,30,31,31,32,32,33,33,34,34,35,35,36,36,37,37,38,38,39,39,40,40,41,41,43,43,44,44,45,45,46,46,47,47,48,48,49,49,50,50,51,51,52,52,53,53,54,54,55,55,56,56,57,57,58,58,59,59,60,60,61,61,62,62],"right_children":[2,4,6,8,10,12,14,16,18,20,22,24,26,28,30,32,34,36,38,40,42,44,46,48,50,52,54,56,58,60,62,64,66,68,70,72,74,76,78,80,82,84,-1,86,88,90,92,94,96,98,100,102,104,106,108,110,112,114,116,118,120,122,124,-1,-1,-1,-1,-1,-1,-1,-1,-1,-1,-1,-1,-1,-1,-1,-1,-1,-1,-1,-1,-1,-1,-1,-1,-1,-1,-1,-1,-1,-1,-1,-1,-1,-1,-1,-1,-1,-1,-1,-1,-1,-1,-1,-1,-1,-1,-1,-1,-1,-1,-1,-1,-1,-1,-1,-1,-1,-1,-1,-1,-1,-1],"split_conditions":[9.1E1,5.1E1,1.91E2,4.4E1,5.6E1,1.84E2,2.05E2,2.7E1,2.87E2,9.8E1,8.6E1,9.8E1,2.77E2,1.8E2,2.07E2,2.3E1,2.88E2,2.47E2,3.04E2,5.5E1,3.27E2,5.8E1,9.9E1,2.51E2,1.12E2,2.1E1,3.19E2,1.93E2,2.17E2,2.98E2,2.16E2,2.98E2,2.3E1,4.2E1,4.3E1,1.8E2,2.51E2,2.88E2,3.19E2,5.8E1,6E0,2.99E2,7.989364E0,5.8E1,6.5E1,8.6E1,1.6E2,2.47E2,2.54E2,3.19E2,1.13E2,1.3E1,8.6E1,2.99E2,3.31E2,1.25E2,1.96E2,1.94E2,2.84E2,2.73E2,3.04E2,2.12E2,2.17E2,-1.6904352E0,2.1500964E0,-3.176551E0,3.6768854E0,-3.7041795E0,-8.0455637E-1,-1.9542713E0,-2.0074057E1,1.2610097E0,8.112444E0,-1.929843E1,3.509625E0,3.785649E1,2.2177446E1,1.2533526E1,4.198388E0,-3.8361585E0,-1.6868135E0,-2.545941E0,1.3899722E1,-5.583868E0,-1.6963743E1,1.3082498E0,-2.2075222E0,-7.799422E0,-3.7936265E0,2.0767938E-1,7.1292334E0,-4.0909066E0,-8.3940774E-1,2.6947527E0,2.4868048E1,-9.689677E0,-1.8587923E-1,-2.9775205E0,-1.024165E1,3.8723338E0,1.1372898E-1,-1.6656517E1,-6.909198E0,2.1711535E1,9.709959E0,-1.368897E0,-1.52873125E1,2.2911121E1,2.4367619E0,-1.020293E1,-1.9997023E1,-3.372862E0,-7.65591E0,1.1785509E1,3.3749835E0,-6.0138297E0,1.2709086E-1,3.2354603E0,-3.9071805E0,4.4091335E1,7.4023266E0,-3.9121907E0,-1.2749866E1,5.5676584E0,-1.2300403E-1],"split_indices":[1,1,1,1,1,1,1,1,0,0,0,1,0,0,1,1,0,0,0,1,0,0,0,0,1,0,0,1,0,0,1,0,0,1,1,0,0,0,0,0,0,0,0,1,1,1,0,0,0,0,1,0,0,0,0,0,1,0,0,0,0,1,1,0,0,0,0,0,0,0,0,0,0,0,0,0,0,0,0,0,0,0,0,0,0,0,0,0,0,0,0,0,0,0,0,0,0,0,0,0,0,0,0,0,0,0,0,0,0,0,0,0,0,0,0,0,0,0,0,0,0,0,0,0,0],"split_type":[0,0,0,0,0,0,0,0,0,0,0,0,0,0,0,0,0,0,0,0,0,0,0,0,0,0,0,0,0,0,0,0,0,0,0,0,0,0,0,0,0,0,0,0,0,0,0,0,0,0,0,0,0,0,0,0,0,0,0,0,0,0,0,0,0,0,0,0,0,0,0,0,0,0,0,0,0,0,0,0,0,0,0,0,0,0,0,0,0,0,0,0,0,0,0,0,0,0,0,0,0,0,0,0,0,0,0,0,0,0,0,0,0,0,0,0,0,0,0,0,0,0,0,0,0],"sum_hessian":[3.063E4,7.259E3,2.3371E4,3.852E3,3.407E3,9.019E3,1.4352E4,3.282E3,5.7E2,2.91E2,3.116E3,8.303E3,7.16E2,1.189E3,1.3163E4,2.414E3,8.68E2,4.79E2,9.1E1,8.7E1,2.04E2,7.18E2,2.398E3,2.055E3,6.248E3,5.55E2,1.61E2,6.15E2,5.74E2,7.99E2,1.2364E4,1.88E3,5.34E2,7.35E2,1.33E2,4.06E2,7.3E1,4.3E1,4.8E1,6.9E1,1.8E1,1.97E2,7E0,4.56E2,2.62E2,3.32E2,2.066E3,1.52E3,5.35E2,9.46E2,5.302E3,1.9E1,5.36E2,1.27E2,3.4E1,5E1,5.65E2,1.39E2,4.35E2,7.04E2,9.5E1,5.85E2,1.1779E4,1.617E3,2.63E2,3.6E1,4.98E2,3.2E2,4.15E2,9.3E1,4E1,2.46E2,1.6E2,1.7E1,5.6E1,7E0,3.6E1,2.2E1,2.6E1,2.7E1,4.2E1,2E0,1.6E1,1.62E2,3.5E1,5.7E1,3.99E2,8.3E1,1.79E2,2.77E2,5.5E1,3.26E2,1.74E3,1.501E3,1.9E1,3.7E1,4.98E2,9.1E2,3.6E1,4.98E2,4.804E3,1E1,9E0,1.01E2,4.35E2,4.9E1,7.8E1,1.7E1,1.7E1,4.6E1,4E0,3.67E2,1.98E2,5.4E1,8.5E1,3E2,1.35E2,6.53E2,5.1E1,1.8E1,7.7E1,4.87E2,9.8E1,4.68E2,1.1311E4],"tree_param":{"num_deleted":"0","num_feature":"2","num_nodes":"125","size_leaf_vector":"1"}},{"base_weights":[1.2869413E-2,1.962726E-1,-1.2485486E1,-3.030953E-2,1.6817764E1,-9.216088E0,-2.6146997E1,2.1402565E-1,-1.5402912E1,8.607351E0,7.25462E1,-1.3688466E1,1.5146735E-1,-3.714854E1,-1.6012026E1,-4.0282577E-1,6.246391E0,-2.1900919E1,7.146436E0,-2.0534698E1,1.2062668E1,1.120742E2,3.4662415E1,-1.2214142E1,-2.9617748E1,3.0594015E1,-3.9480245E0,-3.099351E1,-2.0058441E1,1.0168711E-1,-4.3506107E1,-4.9471952E-2,-2.83602E1,1.3349159E1,-9.859579E0,-1.687424E1,-3.228265E1,1.860405E1,-1.1192376E1,1.3017112E1,-2.7232449E1,6.2367177E0,2.1752813E1,4.3498863E1,1.8273926E2,4.3194675E1,1.7549406E1,-6.7764916E0,-2.044238E1,-4.2941082E-1,2.2059927E1,3.393851E0,-1.1644362E1,-2.552887E1,-2.0088678E1,3.2446693E1,-2.3264244E1,-2.3615059E1,-2.6616886E1,-1.2221157E-1,4.144996E0,-1.3992764E1,-6.6823487E0,2.341751E0,1.0345313E1,-4.3854604E0,1.1528742E1,-2.0631824E0,-1.0718628E1,-1.1891354E1,-6.3890517E-1,4.115368E0,2.6906542E1,-1.7289228E1,2.3268173E0,1.7247914E0,6.237326E0,-1.1419372E1,-3.1759605E0,3.979759E0,-3.9041016E0,4.248491E1,2.469968E0,2.3421795E1,2.3428342E0,6.115327E1,-7.4123063E0,8.639426E0,3.1673483E1,1.4326653E0,6.522797E0,-3.9901018E0,1.9228494E0,-9.401838E0,-3.1279452E0,-9.1274756E-1,1.4113182E1,1.6316216E1,-5.0713253E0,-1.1843322E1,-2.1264908E0,1.4619582E1,3.457862E0,-4.3787813E0,-1.2864797E1,-1.0942139E1,-3.8872702E0],"categories":[],"categories_nodes":[],"categories_segments":[],"categories_sizes":[],"default_left":[0,0,0,0,0,0,0,0,0,0,0,0,0,0,0,0,0,0,0,0,0,0,0,0,0,0,0,0,0,0,0,0,0,0,0,0,0,0,0,0,0,0,0,0,0,0,0,0,0,0,0,0,0,0,0,0,0,0,0,0,0,0,0,0,0,0,0,0,0,0,0,0,0,0,0,0,0,0,0,0,0,0,0,0,0,0,0,0,0,0,0,0,0,0,0,0,0,0,0,0,0,0,0,0,0,0,0],"id":9,"left_children":[1,3,5,7,9,11,13,15,17,19,21,23,25,27,29,31,33,35,37,39,41,43,45,47,-1,49,51,53,-1,55,57,59,61,63,65,67,69,71,73,75,77,79,81,83,85,87,89,91,93,-1,-1,95,97,99,-1,101,103,-1,105,-1,-1,-1,-1,-1,-1,-1,-1,-1,-1,-1,-1,-1,-1,-1,-1,-1,-1,-1,-1,-1,-1,-1,-1,-1,-1,-1,-1,-1,-1,-1,-1,-1,-1,-1,-1,-1,-1,-1,-1,-1,-1,-1,-1,-1,-1,-1,-1],"loss_changes":[7.0216E4,1.13696305E5,1.9545594E4,1.1187402E5,1.8514231E5,1.5042469E4,8.882703E3,1.0910066E5,6.8437555E4,3.599443E4,7.398372E4,2.92597E4,1.4722266E4,5.24309E3,2.0383885E4,2.6277588E5,3.1129144E5,1.8346438E4,2.2270719E4,8.893911E3,1.7816805E4,1.1319803E5,3.3303164E3,1.0599621E4,0E0,1.9357219E4,5.9160977E3,5.169996E3,0E0,2.3427982E4,8.0143965E3,1.3037041E5,3.589972E4,2.2092766E5,1.9197495E5,4.6122344E4,2.586396E4,2.134609E4,3.6524305E4,2.75964E2,5.366967E3,2.7235396E4,1.9167422E5,1.666515E4,5.7574438E4,1.3125547E4,4.8537085E2,1.2644662E4,1.0041922E4,0E0,0E0,1.5314264E4,1.8633248E4,7.951371E3,0E0,3.8673447E3,2.4351387E3,0E0,1.2776914E3,0E0,0E0,0E0,0E0,0E0,0E0,0E0,0E0,0E0,0E0,0E0,0E0,0E0,0E0,0E0,0E0,0E0,0E0,0E0,0E0,0E0,0E0,0E0,0E0,0E0,0E0,0E0,0E0,0E0,0E0,0E0,0E0,0E0,0E0,0E0,0E0,0E0,0E0,0E0,0E0,0E0,0E0,0E0,0E0,0E0,0E0,0E0,0E0],"parents":[2147483647,0,0,1,1,2,2,3,3,4,4,5,5,6,6,7,7,8,8,9,9,10,10,11,11,12,12,13,13,14,14,15,15,16,16,17,17,18,18,19,19,20,20,21,21,22,22,23,23,25,25,26,26,27,27,29,29,30,30,31,31,32,32,33,33,34,34,35,35,36,36,37,37,38,38,39,39,40,40,41,41,42,42,43,43,44,44,45,45,46,46,47,47,48,48,51,51,52,52,53,53,55,55,56,56,58,58],"right_children":[2,4,6,8,10,12,14,16,18,20,22,24,26,28,30,32,34,36,38,40,42,44,46,48,-1,50,52,54,-1,56,58,60,62,64,66,68,70,72,74,76,78,80,82,84,86,88,90,92,94,-1,-1,96,98,100,-1,102,104,-1,106,-1,-1,-1,-1,-1,-1,-1,-1,-1,-1,-1,-1,-1,-1,-1,-1,-1,-1,-1,-1,-1,-1,-1,-1,-1,-1,-1,-1,-1,-1,-1,-1,-1,-1,-1,-1,-1,-1,-1,-1,-1,-1,-1,-1,-1,-1,-1,-1],"split_conditions":[3.33E2,3.3E2,2.5E2,3.19E2,2.85E2,1.82E2,2.88E2,2.98E2,2.47E2,2.3E1,3.06E2,1.62E2,1.84E2,2.56E2,3.39E2,2.89E2,2.39E2,3.27E2,3.08E2,1.7E1,1.74E2,2.98E2,3.11E2,9.2E1,-2.9617748E1,3.39E2,3.39E2,3.5E2,-2.0058441E1,3.06E2,2.99E2,2.85E2,8.6E1,2.05E2,3.27E2,1.96E2,1.94E2,3.06E2,3.09E2,1.3E1,3.31E2,1.13E2,1.91E2,2.88E2,3.31E2,3.09E2,3.21E2,8.8E1,3.39E2,-4.2941082E-1,2.2059927E1,2.39E2,1.91E2,3.39E2,-2.0088678E1,2.99E2,3.11E2,-2.3615059E1,3.44E2,-1.2221157E-1,4.144996E0,-1.3992764E1,-6.6823487E0,2.341751E0,1.0345313E1,-4.3854604E0,1.1528742E1,-2.0631824E0,-1.0718628E1,-1.1891354E1,-6.3890517E-1,4.115368E0,2.6906542E1,-1.7289228E1,2.3268173E0,1.7247914E0,6.237326E0,-1.1419372E1,-3.1759605E0,3.979759E0,-3.9041016E0,4.248491E1,2.469968E0,2.3421795E1,2.3428342E0,6.115327E1,-7.4123063E0,8.639426E0,3.1673483E1,1.4326653E0,6.522797E0,-3.9901018E0,1.9228494E0,-9.401838E0,-3.1279452E0,-9.1274756E-1,1.4113182E1,1.6316216E1,-5.0713253E0,-1.1843322E1,-2.1264908E0,1.4619582E1,3.457862E0,-4.3787813E0,-1.2864797E1,-1.0942139E1,-3.8872702E0],"split_indices":[0,0,1,0,1,1,1,0,1,1,1,1,1,1,0,0,1,0,1,1,1,1,1,1,0,0,0,0,0,1,1,0,1,1,1,1,1,1,1,1,0,1,1,1,0,1,1,1,0,0,0,1,1,0,0,1,1,0,0,0,0,0,0,0,0,0,0,0,0,0,0,0,0,0,0,0,0,0,0,0,0,0,0,0,0,0,0,0,0,0,0,0,0,0,0,0,0,0,0,0,0,0,0,0,0,0,0],"split_type":[0,0,0,0,0,0,0,0,0,0,0,0,0,0,0,0,0,0,0,0,0,0,0,0,0,0,0,0,0,0,0,0,0,0,0,0,0,0,0,0,0,0,0,0,0,0,0,0,0,0,0,0,0,0,0,0,0,0,0,0,0,0,0,0,0,0,0,0,0,0,0,0,0,0,0,0,0,0,0,0,0,0,0,0,0,0,0,0,0,0,0,0,0,0,0,0,0,0,0,0,0,0,0,0,0,0,0],"sum_hessian":[3.063E4,3.0188E4,4.42E2,2.9783E4,4.05E2,3.58E2,8.4E1,2.9318E4,4.65E2,3.54E2,5.1E1,2.42E2,1.16E2,3.9E1,4.5E1,2.6599E4,2.719E3,3.61E2,1.04E2,3.7E1,3.17E2,2.4E1,2.7E1,2.39E2,3E0,1.3E1,1.03E2,3.4E1,5E0,2.9E1,1.6E1,2.6268E4,3.31E2,1.887E3,8.32E2,2.45E2,1.16E2,6.4E1,4E1,6E0,3.1E1,1.99E2,1.18E2,1.3E1,1.1E1,1.7E1,1E1,1.45E2,9.4E1,8E0,5E0,5.3E1,5E1,3.1E1,3E0,1.2E1,1.7E1,4E0,1.2E1,2.5608E4,6.6E2,8.1E1,2.5E2,1.496E3,3.91E2,7.58E2,7.4E1,1.61E2,8.4E1,9.3E1,2.3E1,6.1E1,3E0,1.1E1,2.9E1,4E0,2E0,1.8E1,1.3E1,1.46E2,5.3E1,1.1E1,1.07E2,6E0,7E0,1E1,1E0,1.5E1,2E0,3E0,7E0,9.7E1,4.8E1,4.4E1,5E1,4.7E1,6E0,3E0,4.7E1,1.7E1,1.4E1,6E0,6E0,1.3E1,4E0,6E0,6E0],"tree_param":{"num_deleted":"0","num_feature":"2","num_nodes":"107","size_leaf_vector":"1"}},{"base_weights":[1.1299696E-2,3.1542692E-1,-6.324656E0,-4.9356812E-1,8.342982E0,-1.6373135E1,-6.204687E-1,-2.0093378E-1,-2.1202044E1,1.5774103E1,-8.614933E0,-9.463992E0,-3.4829067E1,1.190986E1,-1.0523441E1,-5.693517E-1,1.2719342E1,-3.3531517E1,-1.706042E1,1.0035684E1,3.6978016E1,-5.8475086E1,-5.2840157E0,-1.6726337E1,1.848219E1,-4.070926E1,1.610248E1,5.901012E0,7.371822E1,-7.2225795E0,-2.3853987E1,1.0360527E-1,-1.2393541E1,1.7045744E1,-5.19379E0,-4.5330544E1,-2.35836E1,1.2075676E1,-2.410675E1,1.5898973E1,-2.3968996E1,6.2090595E1,3.042391E1,-2.8399767E1,-4.222273E1,1.05078285E2,-9.769206E0,-2.5321316E1,1.4076217E1,2.8297977E1,-2.0914873E1,-3.1658144E1,-4.8700024E1,2.1734394E1,4.0322113E0,-3.0526142E1,9.284569E0,3.937071E1,3.800322E1,-1.0548727E1,5.2492964E-1,-4.788601E1,-1.3702119E1,-1.3068773E-1,5.2152014E0,-4.551229E0,-3.8096485E-1,7.326446E0,-1.3520141E0,1.2550752E1,-4.9797955E0,-1.0937427E1,-1.6713531E1,-4.4770956E0,-1.0156143E1,-2.7717516E0,5.873779E0,-9.085205E0,-1.1953791E0,2.7125907E0,1.3162679E1,5.911639E0,-1.0021039E1,2.8253855E1,1.1420218E1,-2.0811613E1,1.2224861E1,-1.4095597E1,-2.9355319E0,4.0490257E1,6.1021E0,-4.5458775E0,5.495181E0,-3.8413262E0,-1.5204213E1,6.1950064E0,-5.0036755E0,2.205632E1,4.7037997E0,-1.1651016E1,2.6508791E0,-1.9402523E1,-8.531741E0,2.9781313E0,9.466879E0,-1.161303E0,3.9677308E0,1.1603054E1,-1.4604581E1,3.5283655E-1,3.8323557E0,1.461915E1,1.9566677E0,-1.0309813E0,-6.5925984E0,-1.5693218E0,5.2770977E0,-2.268274E-1,-1.6618967E1,-1.8863295E0,-8.670652E0],"categories":[],"categories_nodes":[],"categories_segments":[],"categories_sizes":[],"default_left":[0,0,0,0,0,0,0,0,0,0,0,0,0,0,0,0,0,0,0,0,0,0,0,0,0,0,0,0,0,0,0,0,0,0,0,0,0,0,0,0,0,0,0,0,0,0,0,0,0,0,0,0,0,0,0,0,0,0,0,0,0,0,0,0,0,0,0,0,0,0,0,0,0,0,0,0,0,0,0,0,0,0,0,0,0,0,0,0,0,0,0,0,0,0,0,0,0,0,0,0,0,0,0,0,0,0,0,0,0,0,0,0,0,0,0,0,0,0,0,0,0],"id":10,"left_children":[1,3,5,7,9,11,13,15,17,19,21,23,25,27,29,31,33,35,37,39,41,43,45,47,49,51,53,55,57,59,61,63,65,67,69,71,73,75,77,79,81,83,85,-1,87,89,91,93,95,97,-1,99,101,103,105,107,109,-1,111,113,115,117,119,-1,-1,-1,-1,-1,-1,-1,-1,-1,-1,-1,-1,-1,-1,-1,-1,-1,-1,-1,-1,-1,-1,-1,-1,-1,-1,-1,-1,-1,-1,-1,-1,-1,-1,-1,-1,-1,-1,-1,-1,-1,-1,-1,-1,-1,-1,-1,-1,-1,-1,-1,-1,-1,-1,-1,-1,-1,-1],"loss_changes":[5.902599E4,1.8982462E5,8.040755E4,1.6091325E5,3.3735556E5,6.444783E4,1.1130773E5,1.2464943E5,1.832164E4,2.2606969E5,1.3521234E5,7.560538E4,4.1984766E4,1.4663822E5,2.1872863E4,2.0259083E5,5.635311E4,9.729516E3,5.757054E4,2.926711E5,6.3288812E4,2.6000406E4,3.8019338E5,7.8456875E4,6.863459E4,7.4266094E3,9.320432E2,4.490113E4,6.6910875E4,1.0390588E4,2.3496875E4,2.2448128E5,4.2334875E4,9.31048E4,7.686292E4,1.7452422E3,4.119629E3,8.977477E3,2.7846805E4,2.395899E5,8.966001E4,5.8856E4,3.2845084E5,0E0,5.2562734E3,7.323728E4,1.11719086E5,7.267528E4,1.3486002E4,3.879303E4,0E0,1.8075398E4,1.8875469E4,8.464336E2,4.8714935E2,4.0832348E4,9.379939E3,0E0,7.4493906E3,2.2841879E4,1.2075888E4,1.0223289E4,7.819869E3,0E0,0E0,0E0,0E0,0E0,0E0,0E0,0E0,0E0,0E0,0E0,0E0,0E0,0E0,0E0,0E0,0E0,0E0,0E0,0E0,0E0,0E0,0E0,0E0,0E0,0E0,0E0,0E0,0E0,0E0,0E0,0E0,0E0,0E0,0E0,0E0,0E0,0E0,0E0,0E0,0E0,0E0,0E0,0E0,0E0,0E0,0E0,0E0,0E0,0E0,0E0,0E0,0E0,0E0,0E0,0E0,0E0,0E0],"parents":[2147483647,0,0,1,1,2,2,3,3,4,4,5,5,6,6,7,7,8,8,9,9,10,10,11,11,12,12,13,13,14,14,15,15,16,16,17,17,18,18,19,19,20,20,21,21,22,22,23,23,24,24,25,25,26,26,27,27,28,28,29,29,30,30,31,31,32,32,33,33,34,34,35,35,36,36,37,37,38,38,39,39,40,40,41,41,42,42,44,44,45,45,46,46,47,47,48,48,49,49,51,51,52,52,53,53,54,54,55,55,56,56,58,58,59,59,60,60,61,61,62,62],"right_children":[2,4,6,8,10,12,14,16,18,20,22,24,26,28,30,32,34,36,38,40,42,44,46,48,50,52,54,56,58,60,62,64,66,68,70,72,74,76,78,80,82,84,86,-1,88,90,92,94,96,98,-1,100,102,104,106,108,110,-1,112,114,116,118,120,-1,-1,-1,-1,-1,-1,-1,-1,-1,-1,-1,-1,-1,-1,-1,-1,-1,-1,-1,-1,-1,-1,-1,-1,-1,-1,-1,-1,-1,-1,-1,-1,-1,-1,-1,-1,-1,-1,-1,-1,-1,-1,-1,-1,-1,-1,-1,-1,-1,-1,-1,-1,-1,-1,-1,-1,-1,-1],"split_conditions":[3.19E2,2.98E2,3.3E2,2.89E2,2.45E2,3.27E2,3.32E2,2.85E2,8.6E1,2.04E2,2.47E2,3.21E2,2.51E2,2.98E2,2.5E2,2.54E2,2.51E2,2.91E2,9.8E1,1.8E2,2.1E2,2.99E2,2.51E2,2.47E2,3.04E2,9.8E1,2.87E2,2.3E1,3.04E2,3.44E2,2.54E2,2.51E2,2.51E2,2.88E2,2.87E2,6.4E1,5.8E1,9.1E1,2.51E2,1.5E2,2.99E2,3.08E2,2.16E2,-2.8399767E1,3.13E2,3.11E2,3.17E2,1.96E2,3.13E2,7.1E1,-2.0914873E1,9.1E1,1.94E2,2.56E2,3E2,1.7E1,8.8E1,3.937071E1,3.11E2,3.39E2,1.8E2,3.34E2,3.39E2,-1.3068773E-1,5.2152014E0,-4.551229E0,-3.8096485E-1,7.326446E0,-1.3520141E0,1.2550752E1,-4.9797955E0,-1.0937427E1,-1.6713531E1,-4.4770956E0,-1.0156143E1,-2.7717516E0,5.873779E0,-9.085205E0,-1.1953791E0,2.7125907E0,1.3162679E1,5.911639E0,-1.0021039E1,2.8253855E1,1.1420218E1,-2.0811613E1,1.2224861E1,-1.4095597E1,-2.9355319E0,4.0490257E1,6.1021E0,-4.5458775E0,5.495181E0,-3.8413262E0,-1.5204213E1,6.1950064E0,-5.0036755E0,2.205632E1,4.7037997E0,-1.1651016E1,2.6508791E0,-1.9402523E1,-8.531741E0,2.9781313E0,9.466879E0,-1.161303E0,3.9677308E0,1.1603054E1,-1.4604581E1,3.5283655E-1,3.8323557E0,1.461915E1,1.9566677E0,-1.0309813E0,-6.5925984E0,-1.5693218E0,5.2770977E0,-2.268274E-1,-1.6618967E1,-1.8863295E0,-8.670652E0],"split_indices":[1,1,1,1,0,1,1,1,0,0,0,1,0,0,0,1,0,1,0,0,0,1,0,0,0,0,0,0,0,1,0,1,0,1,1,0,0,0,0,0,1,1,0,0,1,1,0,0,0,0,0,0,0,0,0,0,0,0,0,1,0,1,1,0,0,0,0,0,0,0,0,0,0,0,0,0,0,0,0,0,0,0,0,0,0,0,0,0,0,0,0,0,0,0,0,0,0,0,0,0,0,0,0,0,0,0,0,0,0,0,0,0,0,0,0,0,0,0,0,0,0],"split_type":[0,0,0,0,0,0,0,0,0,0,0,0,0,0,0,0,0,0,0,0,0,0,0,0,0,0,0,0,0,0,0,0,0,0,0,0,0,0,0,0,0,0,0,0,0,0,0,0,0,0,0,0,0,0,0,0,0,0,0,0,0,0,0,0,0,0,0,0,0,0,0,0,0,0,0,0,0,0,0,0,0,0,0,0,0,0,0,0,0,0,0,0,0,0,0,0,0,0,0,0,0,0,0,0,0,0,0,0,0,0,0,0,0,0,0,0,0,0,0,0,0],"sum_hessian":[3.063E4,2.9228E4,1.402E3,2.6553E4,2.675E3,5.07E2,8.95E2,2.6184E4,3.69E2,1.86E3,8.15E2,3.7E2,1.37E2,3.95E2,5E2,2.5459E4,7.25E2,9.1E1,2.78E2,1.465E3,3.95E2,5E1,7.65E2,2.94E2,7.6E1,1.23E2,1.4E1,3.61E2,3.4E1,4.02E2,9.8E1,2.4089E4,1.37E3,5.84E2,1.41E2,4E1,5.1E1,5.4E1,2.24E2,1.25E3,2.15E2,8E1,3.15E2,1.4E1,3.6E1,2.9E1,7.36E2,2.3E2,6.4E1,6.9E1,7E0,6E1,6.3E1,9E0,5E0,3E1,3.31E2,1.2E1,2.2E1,2.81E2,1.21E2,2.8E1,7E1,2.3361E4,7.28E2,1.096E3,2.74E2,4.35E2,1.49E2,2.7E1,1.14E2,2.4E1,1.6E1,2.9E1,2.2E1,1.4E1,4E1,1.71E2,5.3E1,1.005E3,2.45E2,3.8E1,1.77E2,3.3E1,4.7E1,2.9E1,2.86E2,3.1E1,5E0,2.1E1,8E0,6.18E2,1.18E2,1.55E2,7.5E1,5.3E1,1.1E1,1.4E1,5.5E1,5.1E1,9E0,3.4E1,2.9E1,5E0,4E0,3E0,2E0,6E0,2.4E1,1E2,2.31E2,1.6E1,6E0,1.74E2,1.07E2,9.1E1,3E1,4E0,2.4E1,4.8E1,2.2E1],"tree_param":{"num_deleted":"0","num_feature":"2","num_nodes":"121","size_leaf_vector":"1"}},{"base_weights":[7.9560615E-3,3.8089788E-1,-4.345607E0,1.18656486E-1,4.2158554E1,-7.102754E0,7.6414186E-1,2.9611555E-1,-2.8303013E1,3.3982384E1,7.0008644E1,1.1541532E1,-8.5566635E0,1.3709963E1,-8.676526E0,-2.9550424E-1,1.2706834E1,-9.095844E1,-1.6681393E1,3.8108482E1,-6.792762E0,1.1207082E2,2.5398245E0,2.7586258E1,-3.8829808E0,-7.606311E0,-1.9276285E1,5.0028553E0,5.076964E1,-5.8937044E0,-2.0065285E1,4.5300972E-1,-8.435796E0,1.8954258E1,-7.0091224E-1,-1.0106023E2,7.062772E0,3.729512E1,-2.1718256E1,3.58174E1,3.0225092E1,4.1110115E1,2.7307436E1,-1.762476E1,6.3607845E0,-9.627842E0,3.6766796E1,-9.01821E0,4.2981247E1,-1.7166982E0,-1.1234629E1,-2.4549253E1,2.5201485E1,-1.7711824E1,7.1109605E0,3.2656918E1,4.231942E1,-9.595887E0,1.7553463E0,-2.9604898E1,-1.3018797E1,-7.950145E-2,2.7341957E0,-4.5410666E0,2.9606442E-3,2.1159525E0,9.717468E0,-1.7649542E1,1.6485835E0,-1.8249264E1,-3.5966194E1,2.0860973E1,4.5717897E0,-6.980146E0,1.6411573E1,1.4598148E1,6.532553E0,1.8252457E1,-2.4225974E0,-5.346114E-1,-6.6762633E0,7.8314104E0,1.9104599E1,-1.6141968E0,1.9289436E1,-1.632192E1,-2.5004017E0,-1.2573843E0,-1.0357754E1,4.142096E0,9.179152E0,3.1084337E0,-8.136723E0,3.2213914E0,-2.7734032E0,-9.015222E-1,1.6765282E1,-2.564141E0,-2.2924347E1,6.924663E0,-2.4347664E-1,-7.791628E0,-1.6742144E1,-1.1315467E0,-1.0366354E1],"categories":[],"categories_nodes":[],"categories_segments":[],"categories_sizes":[],"default_left":[0,0,0,0,0,0,0,0,0,0,0,0,0,0,0,0,0,0,0,0,0,0,0,0,0,0,0,0,0,0,0,0,0,0,0,0,0,0,0,0,0,0,0,0,0,0,0,0,0,0,0,0,0,0,0,0,0,0,0,0,0,0,0,0,0,0,0,0,0,0,0,0,0,0,0,0,0,0,0,0,0,0,0,0,0,0,0,0,0,0,0,0,0,0,0,0,0,0,0,0,0,0,0,0,0],"id":11,"left_children":[1,3,5,7,9,11,13,15,17,19,21,23,25,27,29,31,33,35,37,39,-1,41,43,45,47,49,51,53,55,57,59,61,63,65,67,69,-1,71,73,75,-1,-1,-1,-1,-1,-1,77,79,81,83,85,87,89,91,93,-1,95,97,99,101,103,-1,-1,-1,-1,-1,-1,-1,-1,-1,-1,-1,-1,-1,-1,-1,-1,-1,-1,-1,-1,-1,-1,-1,-1,-1,-1,-1,-1,-1,-1,-1,-1,-1,-1,-1,-1,-1,-1,-1,-1,-1,-1,-1,-1],"loss_changes":[4.9734934E4,3.0911375E5,3.4056918E4,1.4143325E5,3.7697375E4,4.2656906E4,1.03759125E5,2.0461514E5,1.25182125E5,3.3105203E4,1.1039294E5,2.8320076E4,1.4696453E4,1.1526638E5,1.5442949E4,1.6208088E5,1.0622589E5,3.360917E4,4.1047082E4,1.4905125E4,0E0,1.3540625E2,1.9546822E4,3.1861555E4,1.4586468E4,2.8615688E4,2.8293207E4,1.4060465E4,2.8770797E4,1.1230844E4,6.0677734E3,1.5149631E5,1.2677334E5,1.38101E5,1.4584011E5,1.1642172E4,0E0,8.1847637E3,1.7371441E4,2.1663938E4,0E0,0E0,0E0,0E0,0E0,0E0,5.3389844E4,5.132352E3,4.3374316E2,1.2418621E5,1.03334266E5,2.1384219E4,3.7680078E2,6.8856724E3,1.5938261E4,0E0,3.7671945E4,1.8057188E4,7.1355396E3,2.3580781E3,1.1220659E4,0E0,0E0,0E0,0E0,0E0,0E0,0E0,0E0,0E0,0E0,0E0,0E0,0E0,0E0,0E0,0E0,0E0,0E0,0E0,0E0,0E0,0E0,0E0,0E0,0E0,0E0,0E0,0E0,0E0,0E0,0E0,0E0,0E0,0E0,0E0,0E0,0E0,0E0,0E0,0E0,0E0,0E0,0E0,0E0],"parents":[2147483647,0,0,1,1,2,2,3,3,4,4,5,5,6,6,7,7,8,8,9,9,10,10,11,11,12,12,13,13,14,14,15,15,16,16,17,17,18,18,19,19,21,21,22,22,23,23,24,24,25,25,26,26,27,27,28,28,29,29,30,30,31,31,32,32,33,33,34,34,35,35,37,37,38,38,39,39,46,46,47,47,48,48,49,49,50,50,51,51,52,52,53,53,54,54,56,56,57,57,58,58,59,59,60,60],"right_children":[2,4,6,8,10,12,14,16,18,20,22,24,26,28,30,32,34,36,38,40,-1,42,44,46,48,50,52,54,56,58,60,62,64,66,68,70,-1,72,74,76,-1,-1,-1,-1,-1,-1,78,80,82,84,86,88,90,92,94,-1,96,98,100,102,104,-1,-1,-1,-1,-1,-1,-1,-1,-1,-1,-1,-1,-1,-1,-1,-1,-1,-1,-1,-1,-1,-1,-1,-1,-1,-1,-1,-1,-1,-1,-1,-1,-1,-1,-1,-1,-1,-1,-1,-1,-1,-1,-1,-1],"split_conditions":[3.09E2,3.08E2,3.3E2,3.04E2,2.17E2,2.7E1,3.31E2,2.98E2,3.06E2,2.1E2,3.21E2,3.17E2,3.27E2,2.51E2,2.5E2,2.56E2,2.39E2,1.82E2,4.3E1,2.07E2,-6.792762E0,2.39E2,3.27E2,3E0,2.4E1,1.74E2,2.51E2,2.3E1,2.54E2,1.82E2,2.68E2,2.42E2,2.85E2,1.5E2,2.47E2,9.2E1,7.062772E0,2.3E1,3.17E2,1.03E2,3.0225092E1,4.1110115E1,2.7307436E1,-1.762476E1,6.3607845E0,-9.627842E0,2.3E1,3.27E2,3.19E2,1.73E2,1.84E2,9.8E1,2.56E2,1.7E1,2.16E2,3.2656918E1,2.8E2,1.62E2,1.84E2,3.5E2,3.39E2,-7.950145E-2,2.7341957E0,-4.5410666E0,2.9606442E-3,2.1159525E0,9.717468E0,-1.7649542E1,1.6485835E0,-1.8249264E1,-3.5966194E1,2.0860973E1,4.5717897E0,-6.980146E0,1.6411573E1,1.4598148E1,6.532553E0,1.8252457E1,-2.4225974E0,-5.346114E-1,-6.6762633E0,7.8314104E0,1.9104599E1,-1.6141968E0,1.9289436E1,-1.632192E1,-2.5004017E0,-1.2573843E0,-1.0357754E1,4.142096E0,9.179152E0,3.1084337E0,-8.136723E0,3.2213914E0,-2.7734032E0,-9.015222E-1,1.6765282E1,-2.564141E0,-2.2924347E1,6.924663E0,-2.4347664E-1,-7.791628E0,-1.6742144E1,-1.1315467E0,-1.0366354E1],"split_indices":[0,0,0,0,1,1,0,0,0,1,1,0,0,1,1,0,1,1,1,1,0,1,1,1,1,1,1,1,1,1,1,0,0,1,1,1,0,1,1,1,0,0,0,0,0,0,1,0,0,1,1,1,1,1,1,0,1,1,1,0,0,0,0,0,0,0,0,0,0,0,0,0,0,0,0,0,0,0,0,0,0,0,0,0,0,0,0,0,0,0,0,0,0,0,0,0,0,0,0,0,0,0,0,0,0],"split_type":[0,0,0,0,0,0,0,0,0,0,0,0,0,0,0,0,0,0,0,0,0,0,0,0,0,0,0,0,0,0,0,0,0,0,0,0,0,0,0,0,0,0,0,0,0,0,0,0,0,0,0,0,0,0,0,0,0,0,0,0,0,0,0,0,0,0,0,0,0,0,0,0,0,0,0,0,0,0,0,0,0,0,0,0,0,0,0,0,0,0,0,0,0,0,0,0,0,0,0,0,0,0,0,0,0],"sum_hessian":[3.063E4,2.8214E4,2.416E3,2.8039E4,1.75E2,1.569E3,8.47E2,2.7866E4,1.73E2,1.37E2,3.8E1,1.13E2,1.456E3,3.57E2,4.9E2,2.6599E4,1.267E3,2.6E1,1.47E2,1.28E2,9E0,2.3E1,1.5E1,5.5E1,5.8E1,1.339E3,1.17E2,2.9E2,6.7E1,3.95E2,9.5E1,2.436E4,2.239E3,8.64E2,4.03E2,2.4E1,2E0,1.2E1,1.35E2,1.25E2,3E0,8E0,1.5E1,3E0,1.2E1,7E0,4.8E1,5.3E1,5E0,5.11E2,8.28E2,1.05E2,1.2E1,2.4E1,2.66E2,7E0,6E1,2.66E2,1.29E2,3.9E1,5.6E1,2.2496E4,1.864E3,1.248E3,9.91E2,4.59E2,4.05E2,3.8E1,3.65E2,9E0,1.5E1,4E0,8E0,1.33E2,2E0,6.4E1,6.1E1,3.1E1,1.7E1,3.5E1,1.8E1,4E0,1E0,4.85E2,2.6E1,5.1E1,7.77E2,3.5E1,7E1,5E0,7E0,6E0,1.8E1,2.18E2,4.8E1,1.4E1,4.6E1,2.63E2,3E0,1.3E1,1.16E2,3.6E1,3E0,4E1,1.6E1],"tree_param":{"num_deleted":"0","num_feature":"2","num_nodes":"105","size_leaf_vector":"1"}},{"base_weights":[8.797701E-3,-1.190516E1,1.4450961E-1,-6.51534E0,-3.5927605E1,2.7706772E1,2.661193E-2,7.6206636E0,-1.609596E1,-2.0030695E1,-2.4007793E1,-9.394481E0,5.2884167E1,-1.461488E1,1.2336744E-1,3.8187042E1,-8.604365E-1,-2.1368986E1,-7.5430746E0,-3.1494005E1,1.1099989E1,8.727036E0,-1.5553779E1,8.0371925E1,1.9346115E1,-9.113567E0,-3.4831337E1,3.5890046E-1,-4.682099E0,2.4610405E1,3.0993536E1,-1.1520017E1,3.309552E1,-9.3502035E0,-1.2742843E1,2.5349018E1,-1.1875171E1,2.567315E0,-4.036684E1,4.6020355E0,7.697078E0,-3.0060525E0,1.2564088E1,5.8304115E1,1.0401695E2,2.6820034E1,-9.706858E0,-1.5415999E1,1.1028683E1,-4.1181236E1,6.1182513E0,-2.5960323E-1,6.3869658E0,-1.1723878E1,-6.710064E-1,1.3166864E1,-8.7405556E-1,-5.291266E0,-1.2379467E0,1.6927063E1,6.8745914E0,5.833341E0,-5.2913866E0,4.1928735E0,9.968319E0,-4.510158E0,5.5596657E0,-6.713131E-1,3.8769805E0,-6.419965E0,-2.1872034E1,5.961841E-1,4.394315E0,5.8432946E0,-5.3484554E0,2.504637E1,4.409414E0,5.627017E1,2.076972E1,-5.9228396E0,1.08522E1,-2.648013E0,-1.4376335E1,7.075094E0,1.0670265E0,-8.6732E0,-1.8766378E1,-1.2156356E-2,-4.6139126E0,7.1483765E0,4.0028408E-1,-2.0564961E0,-7.418543E0,2.4875069E0,-2.3100855E0],"categories":[],"categories_nodes":[],"categories_segments":[],"categories_sizes":[],"default_left":[0,0,0,0,0,0,0,0,0,0,0,0,0,0,0,0,0,0,0,0,0,0,0,0,0,0,0,0,0,0,0,0,0,0,0,0,0,0,0,0,0,0,0,0,0,0,0,0,0,0,0,0,0,0,0,0,0,0,0,0,0,0,0,0,0,0,0,0,0,0,0,0,0,0,0,0,0,0,0,0,0,0,0,0,0,0,0,0,0,0,0,0,0,0,0],"id":12,"left_children":[1,3,5,7,9,11,13,15,17,-1,19,21,23,25,27,29,31,33,35,37,39,41,-1,43,45,47,49,51,53,55,-1,57,59,-1,61,63,65,67,69,-1,71,73,-1,75,77,79,-1,81,83,85,-1,87,89,91,93,-1,-1,-1,-1,-1,-1,-1,-1,-1,-1,-1,-1,-1,-1,-1,-1,-1,-1,-1,-1,-1,-1,-1,-1,-1,-1,-1,-1,-1,-1,-1,-1,-1,-1,-1,-1,-1,-1,-1,-1],"loss_changes":[4.9527945E4,4.4435363E4,9.841768E4,3.8449836E4,2.1557297E4,1.2099738E5,4.27264E4,2.9845057E4,7.4606406E3,0E0,1.2702326E4,4.122455E4,6.943033E4,2.1703535E4,3.391405E4,1.9561824E4,3.3319277E4,8.393133E3,9.705476E3,1.1890227E4,1.1785034E1,1.49075205E4,0E0,1.5850719E4,1.4778871E4,2.010041E4,1.5568273E4,1.064954E5,3.953544E4,1.1801901E4,0E0,3.09333E3,3.9316914E3,0E0,9.323913E3,2.5242383E2,5.945411E3,4.767641E2,1.7572504E4,0E0,2.48698E2,1.0011686E4,0E0,2.512886E4,4.2233188E4,1.4651678E4,0E0,2.527929E4,3.4808906E3,8.157504E3,0E0,8.581412E4,2.342009E5,3.1996008E4,5.632399E4,0E0,0E0,0E0,0E0,0E0,0E0,0E0,0E0,0E0,0E0,0E0,0E0,0E0,0E0,0E0,0E0,0E0,0E0,0E0,0E0,0E0,0E0,0E0,0E0,0E0,0E0,0E0,0E0,0E0,0E0,0E0,0E0,0E0,0E0,0E0,0E0,0E0,0E0,0E0,0E0],"parents":[2147483647,0,0,1,1,2,2,3,3,4,4,5,5,6,6,7,7,8,8,10,10,11,11,12,12,13,13,14,14,15,15,16,16,17,17,18,18,19,19,20,20,21,21,23,23,24,24,25,25,26,26,27,27,28,28,29,29,31,31,32,32,34,34,35,35,36,36,37,37,38,38,40,40,41,41,43,43,44,44,45,45,47,47,48,48,49,49,51,51,52,52,53,53,54,54],"right_children":[2,4,6,8,10,12,14,16,18,-1,20,22,24,26,28,30,32,34,36,38,40,42,-1,44,46,48,50,52,54,56,-1,58,60,-1,62,64,66,68,70,-1,72,74,-1,76,78,80,-1,82,84,86,-1,88,90,92,94,-1,-1,-1,-1,-1,-1,-1,-1,-1,-1,-1,-1,-1,-1,-1,-1,-1,-1,-1,-1,-1,-1,-1,-1,-1,-1,-1,-1,-1,-1,-1,-1,-1,-1,-1,-1,-1,-1,-1,-1],"split_conditions":[1.7E1,2.5E2,2.1E1,3E0,2.54E2,1.15E2,1.3E1,5.8E1,1.15E2,-2.0030695E1,3.11E2,9.8E1,2.42E2,2.5E2,3.19E2,5.6E1,2.05E2,1.3E1,1.25E2,2.87E2,3.19E2,9.2E1,-1.5553779E1,1.92E2,2.99E2,2.05E2,3.11E2,2.98E2,3.3E2,2.3E1,3.0993536E1,9.8E1,2.28E2,-9.3502035E0,2.3E1,1.3E1,2.42E2,1.3E1,3E0,4.6020355E0,1.3E1,2.6E1,1.2564088E1,1.84E2,2.34E2,2.45E2,-9.706858E0,1.62E2,2.19E2,3E2,6.1182513E0,2.89E2,2.99E2,3.27E2,3.32E2,1.3166864E1,-8.7405556E-1,-5.291266E0,-1.2379467E0,1.6927063E1,6.8745914E0,5.833341E0,-5.2913866E0,4.1928735E0,9.968319E0,-4.510158E0,5.5596657E0,-6.713131E-1,3.8769805E0,-6.419965E0,-2.1872034E1,5.961841E-1,4.394315E0,5.8432946E0,-5.3484554E0,2.504637E1,4.409414E0,5.627017E1,2.076972E1,-5.9228396E0,1.08522E1,-2.648013E0,-1.4376335E1,7.075094E0,1.0670265E0,-8.6732E0,-1.8766378E1,-1.2156356E-2,-4.6139126E0,7.1483765E0,4.0028408E-1,-2.0564961E0,-7.418543E0,2.4875069E0,-2.3100855E0],"split_indices":[1,0,1,1,0,0,0,0,0,0,0,0,0,1,1,0,0,1,0,0,0,0,0,0,0,1,1,1,1,0,0,0,0,0,0,1,0,1,1,0,1,0,0,0,0,0,0,1,1,1,0,1,1,1,1,0,0,0,0,0,0,0,0,0,0,0,0,0,0,0,0,0,0,0,0,0,0,0,0,0,0,0,0,0,0,0,0,0,0,0,0,0,0,0,0],"split_type":[0,0,0,0,0,0,0,0,0,0,0,0,0,0,0,0,0,0,0,0,0,0,0,0,0,0,0,0,0,0,0,0,0,0,0,0,0,0,0,0,0,0,0,0,0,0,0,0,0,0,0,0,0,0,0,0,0,0,0,0,0,0,0,0,0,0,0,0,0,0,0,0,0,0,0,0,0,0,0,0,0,0,0,0,0,0,0,0,0,0,0,0,0,0,0],"sum_hessian":[3.063E4,3.44E2,3.0286E4,2.82E2,6.2E1,1.28E2,3.0158E4,1.14E2,1.68E2,1.6E1,4.6E1,5.2E1,7.6E1,1.97E2,2.9961E4,2.4E1,9E1,1.03E2,6.5E1,3.8E1,8E0,3.7E1,1.5E1,4.1E1,3.5E1,1.56E2,4.1E1,2.8562E4,1.399E3,2.1E1,3E0,6.9E1,2.1E1,4.7E1,5.6E1,7E0,5.8E1,8E0,3E1,2E0,6E0,2.8E1,9E0,2.3E1,1.8E1,3.1E1,4E0,1.19E2,3.7E1,3.7E1,4E0,2.5905E4,2.657E3,5.07E2,8.92E2,1.2E1,9E0,3.7E1,3.2E1,5E0,1.6E1,7E0,4.9E1,4E0,3E0,5.3E1,5E0,6E0,2E0,2E1,1E1,4E0,2E0,1.1E1,1.7E1,1.4E1,9E0,4E0,1.4E1,5E0,2.6E1,1E2,1.9E1,1.3E1,2.4E1,2.5E1,1.2E1,2.5536E4,3.69E2,5.96E2,2.061E3,3.7E2,1.37E2,3.92E2,5E2],"tree_param":{"num_deleted":"0","num_feature":"2","num_nodes":"95","size_leaf_vector":"1"}},{"base_weights":[9.232888E-3,-3.2428634E0,3.685854E-1,-1.6164151E0,-4.1582527E1,3.223106E1,-2.8204364E-1,-2.145517E-1,-7.8642454E0,-1.2658749E1,-6.4454254E1,2.387996E1,7.483471E1,-5.0868793E0,3.4007743E-1,-2.5352285E0,6.24476E0,-2.4566969E1,7.20994E-1,-2.7770226E1,2.6855583E1,-1.4456187E1,-7.104331E1,4.9589836E1,2.1061764E1,1.0968162E2,4.2058636E1,-6.6950755E0,7.423252E-1,1.7309245E0,-1.1774057E0,-4.484674E0,9.30472E0,1.0541995E1,1.8035516E0,-1.423327E1,-7.8595345E1,-2.9533747E1,2.4246113E0,-9.0332884E-1,-1.969405E1,1.056392E1,1.8175339E1,-2.1932877E1,-9.16605E0,8.374806E0,7.303058E1,1.602963E0,2.5508049E1,7.7913315E1,3.9475544E1,2.839673E0,5.038666E1,2.3324394E0,-9.376139E0,4.7160603E1,-4.8291054E0,6.8568826E-1,2.588505E1,-5.2734847E0,4.9087796E-1,-4.2249683E-1,-2.826096E0,9.332155E0,-3.4645336E0,2.460302E0,1.557659E1,-9.699696E0,2.0827203E0,-1.1814007E1,-3.1846395E0,-2.8054632E1,-8.3222065E0,2.2284806E0,-1.1965651E1,1.2171962E0,-8.564221E0,2.1720148E1,-3.1276267E0,8.769177E0,-6.424662E0,3.273203E1,1.2731107E1,2.8699915E0,-5.460839E0,1.46728945E1,5.5836253E0,4.203243E1,4.2868752E0,3.5084206E1,1.02755785E1,1.240628E0,-9.56365E0,-2.2594914E0,-6.429513E0,-1.0922227E1,1.8848127E1,-1.049621E1,-3.6774963E-1,3.9573073E-1,-9.164631E0,8.319154E0,-8.075498E0,-2.7489443E0,1.9689635E0,2.1921685E0,-4.1150838E-1],"categories":[],"categories_nodes":[],"categories_segments":[],"categories_sizes":[],"default_left":[0,0,0,0,0,0,0,0,0,0,0,0,0,0,0,0,0,0,0,0,0,0,0,0,0,0,0,0,0,0,0,0,0,0,0,0,0,0,0,0,0,0,0,0,0,0,0,0,0,0,0,0,0,0,0,0,0,0,0,0,0,0,0,0,0,0,0,0,0,0,0,0,0,0,0,0,0,0,0,0,0,0,0,0,0,0,0,0,0,0,0,0,0,0,0,0,0,0,0,0,0,0,0,0,0,0,0],"id":13,"left_children":[1,3,5,7,9,11,13,15,17,19,21,23,25,27,29,31,33,35,37,39,41,-1,43,45,47,49,51,53,55,57,59,61,63,65,67,69,71,73,75,77,-1,79,-1,-1,-1,-1,81,83,85,87,-1,-1,89,91,93,95,97,99,101,103,105,-1,-1,-1,-1,-1,-1,-1,-1,-1,-1,-1,-1,-1,-1,-1,-1,-1,-1,-1,-1,-1,-1,-1,-1,-1,-1,-1,-1,-1,-1,-1,-1,-1,-1,-1,-1,-1,-1,-1,-1,-1,-1,-1,-1,-1,-1],"loss_changes":[3.5798086E4,1.8999838E5,5.718434E5,2.561723E4,8.121464E4,1.9460762E5,8.080849E4,3.5841875E4,7.687844E4,3.41845E4,3.9723125E3,3.2502438E4,9.818E4,2.9056555E4,5.0518938E4,4.0641797E4,1.204265E4,1.0049431E5,1.8369195E4,4.166339E4,8.1519834E3,0E0,1.6983906E3,2.082354E4,3.6210734E4,1.9668844E4,1.2551984E4,5.881179E4,1.7375922E5,3.1528912E5,7.8224766E4,2.2929424E4,1.1356717E5,3.0669465E4,5.495522E4,1.3592275E4,1.9409719E4,7.5660957E3,1.7157342E4,1.820495E4,0E0,7.78939E3,0E0,0E0,0E0,0E0,1.8547508E4,1.2634543E4,5.411911E4,7.713917E4,0E0,0E0,3.6804023E4,3.448898E4,4.1487547E4,9.6551E4,6.515818E4,2.3689848E5,5.122375E4,1.5259314E5,1.03291555E5,0E0,0E0,0E0,0E0,0E0,0E0,0E0,0E0,0E0,0E0,0E0,0E0,0E0,0E0,0E0,0E0,0E0,0E0,0E0,0E0,0E0,0E0,0E0,0E0,0E0,0E0,0E0,0E0,0E0,0E0,0E0,0E0,0E0,0E0,0E0,0E0,0E0,0E0,0E0,0E0,0E0,0E0,0E0,0E0,0E0,0E0],"parents":[2147483647,0,0,1,1,2,2,3,3,4,4,5,5,6,6,7,7,8,8,9,9,10,10,11,11,12,12,13,13,14,14,15,15,16,16,17,17,18,18,19,19,20,20,22,22,23,23,24,24,25,25,26,26,27,27,28,28,29,29,30,30,31,31,32,32,33,33,34,34,35,35,36,36,37,37,38,38,39,39,41,41,46,46,47,47,48,48,49,49,52,52,53,53,54,54,55,55,56,56,57,57,58,58,59,59,60,60],"right_children":[2,4,6,8,10,12,14,16,18,20,22,24,26,28,30,32,34,36,38,40,42,-1,44,46,48,50,52,54,56,58,60,62,64,66,68,70,72,74,76,78,-1,80,-1,-1,-1,-1,82,84,86,88,-1,-1,90,92,94,96,98,100,102,104,106,-1,-1,-1,-1,-1,-1,-1,-1,-1,-1,-1,-1,-1,-1,-1,-1,-1,-1,-1,-1,-1,-1,-1,-1,-1,-1,-1,-1,-1,-1,-1,-1,-1,-1,-1,-1,-1,-1,-1,-1,-1,-1,-1,-1,-1,-1],"split_conditions":[4.4E1,4.3E1,4.7E1,3.4E1,2.39E2,2.87E2,8.8E1,2.3E1,4.2E1,1.91E2,2.88E2,4.3E1,3.06E2,2.51E2,2.17E2,2.98E2,1.74E2,2.68E2,2.3E1,1.35E2,2.33E2,-1.4456187E1,3.13E2,2.3E1,9.1E1,2.98E2,3.09E2,5.8E1,2.54E2,2.16E2,2.42E2,1.91E2,3.17E2,1.73E2,1.94E2,2.3E1,3.11E2,1.7E1,3.17E2,2.3E1,-1.969405E1,2.28E2,1.8175339E1,-2.1932877E1,-9.16605E0,8.374806E0,2.4E1,8.6E1,1.62E2,2.89E2,3.9475544E1,2.839673E0,3.11E2,2.39E2,2.28E2,5.6E1,5.6E1,2.1E2,3.27E2,2.45E2,2.54E2,-4.2249683E-1,-2.826096E0,9.332155E0,-3.4645336E0,2.460302E0,1.557659E1,-9.699696E0,2.0827203E0,-1.1814007E1,-3.1846395E0,-2.8054632E1,-8.3222065E0,2.2284806E0,-1.1965651E1,1.2171962E0,-8.564221E0,2.1720148E1,-3.1276267E0,8.769177E0,-6.424662E0,3.273203E1,1.2731107E1,2.8699915E0,-5.460839E0,1.46728945E1,5.5836253E0,4.203243E1,4.2868752E0,3.5084206E1,1.02755785E1,1.240628E0,-9.56365E0,-2.2594914E0,-6.429513E0,-1.0922227E1,1.8848127E1,-1.049621E1,-3.6774963E-1,3.9573073E-1,-9.164631E0,8.319154E0,-8.075498E0,-2.7489443E0,1.9689635E0,2.1921685E0,-4.1150838E-1],"split_indices":[0,0,0,0,1,1,0,0,0,1,1,1,1,1,0,1,1,1,1,1,1,0,1,1,1,1,1,0,1,0,0,1,1,1,1,1,1,1,1,1,0,1,0,0,0,0,1,1,1,1,0,0,1,1,1,0,0,0,1,1,0,0,0,0,0,0,0,0,0,0,0,0,0,0,0,0,0,0,0,0,0,0,0,0,0,0,0,0,0,0,0,0,0,0,0,0,0,0,0,0,0,0,0,0,0,0,0],"split_type":[0,0,0,0,0,0,0,0,0,0,0,0,0,0,0,0,0,0,0,0,0,0,0,0,0,0,0,0,0,0,0,0,0,0,0,0,0,0,0,0,0,0,0,0,0,0,0,0,0,0,0,0,0,0,0,0,0,0,0,0,0,0,0,0,0,0,0,0,0,0,0,0,0,0,0,0,0,0,0,0,0,0,0,0,0,0,0,0,0,0,0,0,0,0,0,0,0,0,0,0,0,0,0,0,0,0,0],"sum_hessian":[3.063E4,3.047E3,2.7583E4,2.924E3,1.23E2,5.51E2,2.7032E4,2.389E3,5.35E2,5.5E1,6.8E1,4.62E2,8.9E1,3.098E3,2.3934E4,1.758E3,6.31E2,1.81E2,3.54E2,4E1,1.5E1,2.2E1,4.6E1,4.4E1,4.18E2,4.2E1,4.7E1,2.428E3,6.7E2,1.2488E4,1.1446E4,1.51E3,2.48E2,3.2E2,3.11E2,1.53E2,2.8E1,1.8E1,3.36E2,2.4E1,1.6E1,1.1E1,4E0,4.3E1,3E0,2.4E1,2E1,7.8E1,3.4E2,1.9E1,2.3E1,1E1,3.7E1,5.56E2,1.872E3,7.1E1,5.99E2,1.1971E4,5.17E2,3.312E3,8.134E3,9.31E2,5.79E2,1.21E2,1.27E2,3.04E2,1.6E1,4E1,2.71E2,1.8E1,1.35E2,2.1E1,7E0,4E0,1.4E1,3.2E2,1.6E1,2E0,2.2E1,7E0,4E0,8E0,1.2E1,5.6E1,2.2E1,7.6E1,2.64E2,9E0,1E1,6E0,3.1E1,5.29E2,2.7E1,1.625E3,2.47E2,1.1E1,6E1,6.3E1,5.36E2,1.1734E4,2.37E2,5E2,1.7E1,2.493E3,8.19E2,1.745E3,6.389E3],"tree_param":{"num_deleted":"0","num_feature":"2","num_nodes":"107","size_leaf_vector":"1"}},{"base_weights":[9.612021E-3,-1.0613804E0,9.304009E-1,-3.326634E-1,-9.537863E0,6.9799194E0,-3.7802196E-1,-8.7373364E-1,9.065662E0,-7.956597E0,-2.1635992E1,1.1486534E1,-3.728566E-1,-4.141646E1,2.5903739E-2,-1.7642163E-1,-1.4751126E1,6.4845726E1,-2.7329636E0,-9.1587305E0,8.794661E0,-2.8230633E1,-1.7336E1,5.721272E0,2.6198757E1,1.8692032E1,-7.168038E0,-2.7518995E1,-5.068497E1,4.9749827E0,-8.240932E-1,-1.1842402E0,8.81238E0,-1.0602363E1,-4.0690853E1,1.339605E2,5.026634E1,-1.4359464E1,9.807021E0,-2.7874284E0,-1.2309057E1,2.762505E1,-4.6064777E0,1.1386188E1,-2.2049807E1,-5.5639853E0,8.891025E0,2.9369413E1,1.940182E1,-3.0197613E1,2.5657887E1,-6.41503E1,-4.9286213E0,-1.1099938E1,-2.3703514E1,-1.8172102E1,-4.1227337E1,2.7236247E-1,1.8120005E1,-1.260614E1,-4.3819273E-1,-2.2667597E-1,-9.400651E0,1.6805335E0,7.00168E0,1.3569343E-1,-3.8164117E0,-2.308558E1,-6.93862E0,3.3032455E1,5.6479885E1,3.3654206E0,2.9215223E1,-2.5072289E0,-9.700373E0,2.791132E-1,1.3495745E1,-3.7540352E0,1.0207716E0,-2.4394147E0,-4.930116E0,-2.6418157E0,2.3080107E1,-6.8128643E0,1.4852729E0,6.8044615E0,-1.5795322E1,-8.275583E0,-2.8548925E0,1.2026759E0,-7.8679814E0,4.5653625E0,-1.2203173E-1,1.1538494E1,3.903442E0,8.070114E-1,-2.5325842E1,1.9390936E1,5.8275347E0,-2.3656788E1,3.0797846E0,2.8603508E1,-2.2151256E0,-4.3328314E0,-7.7374544E0,-9.151971E0,-2.2066565E1,1.3597138E0,-6.4267945E0,6.0415645E0,-3.3620565E0,-5.933364E-1,-1.0830808E1,-6.1172485E-1,4.4827354E-1],"categories":[],"categories_nodes":[],"categories_segments":[],"categories_sizes":[],"default_left":[0,0,0,0,0,0,0,0,0,0,0,0,0,0,0,0,0,0,0,0,0,0,0,0,0,0,0,0,0,0,0,0,0,0,0,0,0,0,0,0,0,0,0,0,0,0,0,0,0,0,0,0,0,0,0,0,0,0,0,0,0,0,0,0,0,0,0,0,0,0,0,0,0,0,0,0,0,0,0,0,0,0,0,0,0,0,0,0,0,0,0,0,0,0,0,0,0,0,0,0,0,0,0,0,0,0,0,0,0,0,0,0,0,0,0],"id":14,"left_children":[1,3,5,7,9,11,13,15,17,19,21,23,25,27,29,31,33,35,37,39,41,-1,43,45,47,49,51,53,55,57,59,61,63,65,67,69,71,73,75,77,79,81,83,85,87,89,91,-1,93,95,97,99,101,-1,103,-1,105,107,109,111,113,-1,-1,-1,-1,-1,-1,-1,-1,-1,-1,-1,-1,-1,-1,-1,-1,-1,-1,-1,-1,-1,-1,-1,-1,-1,-1,-1,-1,-1,-1,-1,-1,-1,-1,-1,-1,-1,-1,-1,-1,-1,-1,-1,-1,-1,-1,-1,-1,-1,-1,-1,-1,-1,-1],"loss_changes":[3.020799E4,8.74687E4,1.3037601E5,6.632342E4,2.1272977E4,9.7060016E4,2.2449633E5,1.1933259E5,4.6744816E5,2.0076832E4,3.8565504E4,1.538829E5,1.4445198E5,1.5607969E4,5.6424387E4,1.0639124E5,6.306307E4,1.18215E5,8.572316E4,1.857214E4,1.7034613E4,0E0,1.6904133E4,4.6767016E4,2.4712912E5,1.00558336E5,1.04576805E5,1.1125352E3,4.797547E3,1.2152542E5,5.2040527E4,1.364585E5,5.5089812E4,1.195248E4,4.980275E4,6.4720312E3,1.9025356E5,3.2635375E4,8.833044E4,1.8585434E4,1.0549906E4,5.097578E4,7.033155E3,1.4214026E4,7.0916406E3,5.6874113E4,6.0008453E4,0E0,5.6501453E4,6.620658E4,6.1181156E4,3.473408E4,1.9568239E5,0E0,4.3962695E2,0E0,1.2659016E4,1.3401528E5,3.089E4,9.058045E4,3.4295836E4,0E0,0E0,0E0,0E0,0E0,0E0,0E0,0E0,0E0,0E0,0E0,0E0,0E0,0E0,0E0,0E0,0E0,0E0,0E0,0E0,0E0,0E0,0E0,0E0,0E0,0E0,0E0,0E0,0E0,0E0,0E0,0E0,0E0,0E0,0E0,0E0,0E0,0E0,0E0,0E0,0E0,0E0,0E0,0E0,0E0,0E0,0E0,0E0,0E0,0E0,0E0,0E0,0E0,0E0],"parents":[2147483647,0,0,1,1,2,2,3,3,4,4,5,5,6,6,7,7,8,8,9,9,10,10,11,11,12,12,13,13,14,14,15,15,16,16,17,17,18,18,19,19,20,20,22,22,23,23,24,24,25,25,26,26,27,27,28,28,29,29,30,30,31,31,32,32,33,33,34,34,35,35,36,36,37,37,38,38,39,39,40,40,41,41,42,42,43,43,44,44,45,45,46,46,48,48,49,49,50,50,51,51,52,52,54,54,56,56,57,57,58,58,59,59,60,60],"right_children":[2,4,6,8,10,12,14,16,18,20,22,24,26,28,30,32,34,36,38,40,42,-1,44,46,48,50,52,54,56,58,60,62,64,66,68,70,72,74,76,78,80,82,84,86,88,90,92,-1,94,96,98,100,102,-1,104,-1,106,108,110,112,114,-1,-1,-1,-1,-1,-1,-1,-1,-1,-1,-1,-1,-1,-1,-1,-1,-1,-1,-1,-1,-1,-1,-1,-1,-1,-1,-1,-1,-1,-1,-1,-1,-1,-1,-1,-1,-1,-1,-1,-1,-1,-1,-1,-1,-1,-1,-1,-1,-1,-1,-1,-1,-1,-1],"split_conditions":[1.73E2,1.6E2,1.96E2,1.5E2,2.88E2,2.3E2,2.04E2,1.25E2,1.52E2,2.51E2,2.89E2,1.73E2,1.8E2,9.2E1,2.17E2,1.12E2,2.88E2,1.6E2,1.58E2,9.2E1,2.54E2,-2.8230633E1,2.99E2,1.82E2,1.74E2,2.41E2,2.33E2,2.4E1,1.62E2,2.16E2,2.27E2,1.06E2,2.85E2,4.3E1,2.99E2,9.8E1,2.34E2,1.54E2,2.87E2,4.3E1,1.63E2,1.63E2,2.62E2,1.66E2,3.21E2,9.8E1,1.92E2,2.9369413E1,1.8E2,2.39E2,2.54E2,1.94E2,2.34E2,-1.1099938E1,7.1E1,-1.8172102E1,2.54E2,2.1E2,3.17E2,2.17E2,2.85E2,-2.2667597E-1,-9.400651E0,1.6805335E0,7.00168E0,1.3569343E-1,-3.8164117E0,-2.308558E1,-6.93862E0,3.3032455E1,5.6479885E1,3.3654206E0,2.9215223E1,-2.5072289E0,-9.700373E0,2.791132E-1,1.3495745E1,-3.7540352E0,1.0207716E0,-2.4394147E0,-4.930116E0,-2.6418157E0,2.3080107E1,-6.8128643E0,1.4852729E0,6.8044615E0,-1.5795322E1,-8.275583E0,-2.8548925E0,1.2026759E0,-7.8679814E0,4.5653625E0,-1.2203173E-1,1.1538494E1,3.903442E0,8.070114E-1,-2.5325842E1,1.9390936E1,5.8275347E0,-2.3656788E1,3.0797846E0,2.8603508E1,-2.2151256E0,-4.3328314E0,-7.7374544E0,-9.151971E0,-2.2066565E1,1.3597138E0,-6.4267945E0,6.0415645E0,-3.3620565E0,-5.933364E-1,-1.0830808E1,-6.1172485E-1,4.4827354E-1],"split_indices":[0,0,0,0,1,1,0,0,0,1,1,1,0,1,0,0,1,1,0,1,1,0,1,0,1,1,1,1,1,0,0,0,1,1,1,1,1,0,1,1,0,0,1,0,1,1,0,0,0,1,1,0,1,0,1,0,1,0,1,1,0,0,0,0,0,0,0,0,0,0,0,0,0,0,0,0,0,0,0,0,0,0,0,0,0,0,0,0,0,0,0,0,0,0,0,0,0,0,0,0,0,0,0,0,0,0,0,0,0,0,0,0,0,0,0],"split_type":[0,0,0,0,0,0,0,0,0,0,0,0,0,0,0,0,0,0,0,0,0,0,0,0,0,0,0,0,0,0,0,0,0,0,0,0,0,0,0,0,0,0,0,0,0,0,0,0,0,0,0,0,0,0,0,0,0,0,0,0,0,0,0,0,0,0,0,0,0,0,0,0,0,0,0,0,0,0,0,0,0,0,0,0,0,0,0,0,0,0,0,0,0,0,0,0,0,0,0,0,0,0,0,0,0,0,0,0,0,0,0,0,0,0,0],"sum_hessian":[3.063E4,1.416E4,1.647E4,1.304E4,1.12E3,2.928E3,1.3542E4,1.2331E4,7.09E2,9.92E2,1.28E2,1.815E3,1.113E3,1.31E2,1.3411E4,1.1742E4,5.89E2,1.23E2,5.86E2,9.26E2,6.6E1,6E0,1.22E2,1.305E3,5.1E2,2.92E2,8.21E2,5.4E1,7.7E1,1.965E3,1.1446E4,1.0559E4,1.183E3,5.09E2,8E1,2E1,1.03E2,3.04E2,2.82E2,3.07E2,6.19E2,2.7E1,3.9E1,1.7E1,1.05E2,2.86E2,1.019E3,4.3E1,4.67E2,3.6E1,2.56E2,3E1,7.91E2,1.3E1,4.1E1,3.5E1,4.2E1,1.448E3,5.17E2,3.62E2,1.1084E4,1.0412E4,1.47E2,9.7E2,2.13E2,8.2E1,4.27E2,2.5E1,5.5E1,1.6E1,4E0,5.7E1,4.6E1,2.29E2,7.5E1,2.26E2,5.6E1,1.19E2,1.88E2,3.09E2,3.1E2,1.6E1,1.1E1,1.3E1,2.6E1,1.5E1,2E0,7.2E1,3.3E1,1.96E2,9E1,6.06E2,4.13E2,1.16E2,3.51E2,2.3E1,1.3E1,3.4E1,2.22E2,2.5E1,5E0,1.8E1,7.73E2,9E0,3.2E1,3.3E1,9E0,1.211E3,2.37E2,4.84E2,3.3E1,2.5E2,1.12E2,6.062E3,5.022E3],"tree_param":{"num_deleted":"0","num_feature":"2","num_nodes":"115","size_leaf_vector":"1"}},{"base_weights":[6.9957036E-3,2.8347564E-1,-3.2205129E0,9.724298E-2,2.9952112E1,-5.1569147E0,3.6836883E-1,2.2553214E-1,-2.0449488E1,2.4086168E1,4.9940525E1,8.594627E0,-6.2293367E0,9.600936E0,-6.36407E0,-1.9416372E-1,9.029699E0,-6.5440994E1,-1.2103407E1,2.7049637E1,-4.965359E0,8.14471E1,-4.406147E-1,2.0197947E1,-2.5643635E0,-4.1423405E1,-6.006441E0,2.5874977E0,3.2807056E1,-4.197631E0,-1.5234339E1,5.5877186E-2,-1.997769E1,1.7271856E1,1.7171363E0,-7.2934395E1,5.6452975E0,2.8040241E1,-1.5851671E1,1.3137213E1,3.361498E1,3.0140856E1,1.9696964E1,-1.320475E1,3.9003115E0,3.1683971E1,-5.810551E0,-6.641328E0,3.4555714E1,-1.7622997E1,3.8392608E0,-4.295981E0,-1.0559679E1,5.4204454E0,-1.7735851E1,4.3040226E1,7.3445005E0,-6.8371E0,1.2557211E0,-1.7436424E1,1.1168161E1,-5.9042703E-2,2.95367E0,-9.934808E0,-4.681768E0,1.9899068E0,1.8806135E1,-1.2965145E1,2.2529411E0,-1.7146353E1,-3.1603893E1,1.5848434E1,3.3460858E0,-5.1294613E0,1.3533207E1,5.481584E0,2.3633387E0,2.1680553E1,5.826126E0,-5.424944E0,1.2940689E1,-1.0096596E0,-3.4483485E0,-4.6276182E-1,-4.7857943E0,5.945969E0,1.6235218E1,-2.5165884E0,1.5265249E0,-5.032802E0,2.1678543E0,1.09913334E-1,1.199158E1,-2.8062933E1,5.548161E-1,7.2005095E0,3.718064E1,-1.7408124E-1,5.7869053E0,-1.8051671E0,-1.7771908E1,2.8736596E0,-8.4766185E-1,-4.169591E0,-9.48073E0,5.1364255E0,1.2515771E0],"categories":[],"categories_nodes":[],"categories_segments":[],"categories_sizes":[],"default_left":[0,0,0,0,0,0,0,0,0,0,0,0,0,0,0,0,0,0,0,0,0,0,0,0,0,0,0,0,0,0,0,0,0,0,0,0,0,0,0,0,0,0,0,0,0,0,0,0,0,0,0,0,0,0,0,0,0,0,0,0,0,0,0,0,0,0,0,0,0,0,0,0,0,0,0,0,0,0,0,0,0,0,0,0,0,0,0,0,0,0,0,0,0,0,0,0,0,0,0,0,0,0,0,0,0,0,0],"id":15,"left_children":[1,3,5,7,9,11,13,15,17,19,21,23,25,27,29,31,33,35,37,39,-1,41,43,45,47,49,51,53,55,57,59,61,63,65,67,69,-1,71,73,75,77,-1,-1,-1,-1,79,81,83,85,-1,-1,87,89,91,93,95,97,99,101,103,105,-1,-1,-1,-1,-1,-1,-1,-1,-1,-1,-1,-1,-1,-1,-1,-1,-1,-1,-1,-1,-1,-1,-1,-1,-1,-1,-1,-1,-1,-1,-1,-1,-1,-1,-1,-1,-1,-1,-1,-1,-1,-1,-1,-1,-1,-1],"loss_changes":[2.7334219E4,1.5589255E5,1.6798883E4,7.391589E4,1.9433297E4,2.3207047E4,5.277083E4,1.0297234E5,6.454542E4,1.706671E4,6.194203E4,1.4812667E4,1.1180785E4,5.8181293E4,9.371547E3,1.3158308E5,7.639434E4,1.8419812E4,2.2713904E4,1.1341219E4,0E0,6.125156E2,9.943817E3,1.6913223E4,9.158393E3,9.203688E3,1.1239645E4,1.5986832E4,2.1310586E4,5.708591E3,5.7762285E3,6.4984074E4,1.8552656E4,2.8755075E5,1.7549931E5,6.7653906E3,0E0,4.8523594E3,1.110616E4,1.01730273E3,4.633079E4,0E0,0E0,0E0,0E0,2.3006746E4,2.1146722E2,2.5391204E3,6.569429E2,0E0,0E0,4.0562094E4,4.3793504E4,4.241936E4,5.0652902E4,8.7892805E4,2.3777646E3,1.1114839E4,4.4430244E3,4.021123E3,2.6177393E2,0E0,0E0,0E0,0E0,0E0,0E0,0E0,0E0,0E0,0E0,0E0,0E0,0E0,0E0,0E0,0E0,0E0,0E0,0E0,0E0,0E0,0E0,0E0,0E0,0E0,0E0,0E0,0E0,0E0,0E0,0E0,0E0,0E0,0E0,0E0,0E0,0E0,0E0,0E0,0E0,0E0,0E0,0E0,0E0,0E0,0E0],"parents":[2147483647,0,0,1,1,2,2,3,3,4,4,5,5,6,6,7,7,8,8,9,9,10,10,11,11,12,12,13,13,14,14,15,15,16,16,17,17,18,18,19,19,21,21,22,22,23,23,24,24,25,25,26,26,27,27,28,28,29,29,30,30,31,31,32,32,33,33,34,34,35,35,37,37,38,38,39,39,40,40,45,45,46,46,47,47,48,48,51,51,52,52,53,53,54,54,55,55,56,56,57,57,58,58,59,59,60,60],"right_children":[2,4,6,8,10,12,14,16,18,20,22,24,26,28,30,32,34,36,38,40,-1,42,44,46,48,50,52,54,56,58,60,62,64,66,68,70,-1,72,74,76,78,-1,-1,-1,-1,80,82,84,86,-1,-1,88,90,92,94,96,98,100,102,104,106,-1,-1,-1,-1,-1,-1,-1,-1,-1,-1,-1,-1,-1,-1,-1,-1,-1,-1,-1,-1,-1,-1,-1,-1,-1,-1,-1,-1,-1,-1,-1,-1,-1,-1,-1,-1,-1,-1,-1,-1,-1,-1,-1,-1,-1,-1],"split_conditions":[3.09E2,3.08E2,3.3E2,3.04E2,2.17E2,2.7E1,3.31E2,2.98E2,3.06E2,2.1E2,3.21E2,3.17E2,4.2E1,2.41E2,2.5E2,2.89E2,1.82E2,1.82E2,4.3E1,5.8E1,-4.965359E0,2.39E2,3.27E2,2.3E1,2.4E1,3.11E2,2.51E2,2.16E2,3.06E2,1.82E2,3.21E2,2.85E2,8.6E1,1.58E2,1.93E2,1.62E2,5.6452975E0,2.3E1,3.17E2,4.3E1,1.03E2,3.0140856E1,1.9696964E1,-1.320475E1,3.9003115E0,3E0,3.13E2,3.27E2,3.19E2,-1.7622997E1,3.8392608E0,2.05E2,3.17E2,1.74E2,2.17E2,2.98E2,3.09E2,1.62E2,1.94E2,3.44E2,3.33E2,-5.9042703E-2,2.95367E0,-9.934808E0,-4.681768E0,1.9899068E0,1.8806135E1,-1.2965145E1,2.2529411E0,-1.7146353E1,-3.1603893E1,1.5848434E1,3.3460858E0,-5.1294613E0,1.3533207E1,5.481584E0,2.3633387E0,2.1680553E1,5.826126E0,-5.424944E0,1.2940689E1,-1.0096596E0,-3.4483485E0,-4.6276182E-1,-4.7857943E0,5.945969E0,1.6235218E1,-2.5165884E0,1.5265249E0,-5.032802E0,2.1678543E0,1.09913334E-1,1.199158E1,-2.8062933E1,5.548161E-1,7.2005095E0,3.718064E1,-1.7408124E-1,5.7869053E0,-1.8051671E0,-1.7771908E1,2.8736596E0,-8.4766185E-1,-4.169591E0,-9.48073E0,5.1364255E0,1.2515771E0],"split_indices":[0,0,0,0,1,1,0,0,0,1,1,0,1,1,1,0,1,1,1,1,0,1,1,1,1,0,1,1,1,1,1,0,1,1,1,1,0,1,1,1,1,0,0,0,0,1,0,0,0,0,0,1,0,1,1,1,1,1,1,0,0,0,0,0,0,0,0,0,0,0,0,0,0,0,0,0,0,0,0,0,0,0,0,0,0,0,0,0,0,0,0,0,0,0,0,0,0,0,0,0,0,0,0,0,0,0,0],"split_type":[0,0,0,0,0,0,0,0,0,0,0,0,0,0,0,0,0,0,0,0,0,0,0,0,0,0,0,0,0,0,0,0,0,0,0,0,0,0,0,0,0,0,0,0,0,0,0,0,0,0,0,0,0,0,0,0,0,0,0,0,0,0,0,0,0,0,0,0,0,0,0,0,0,0,0,0,0,0,0,0,0,0,0,0,0,0,0,0,0,0,0,0,0,0,0,0,0,0,0,0,0,0,0,0,0,0,0],"sum_hessian":[3.063E4,2.8214E4,2.416E3,2.8039E4,1.75E2,1.569E3,8.47E2,2.7866E4,1.73E2,1.37E2,3.8E1,1.13E2,1.456E3,3.57E2,4.9E2,2.6599E4,1.267E3,2.6E1,1.47E2,1.28E2,9E0,2.3E1,1.5E1,5.5E1,5.8E1,8E0,1.448E3,2.75E2,8.2E1,3.95E2,9.5E1,2.6268E4,3.31E2,5.95E2,6.72E2,2.4E1,2E0,1.2E1,1.35E2,4.2E1,8.6E1,8E0,1.5E1,3E0,1.2E1,3.8E1,1.7E1,5.3E1,5E0,6E0,2E0,1.054E3,3.94E2,2.42E2,3.3E1,5.8E1,2.4E1,2.66E2,1.29E2,8.8E1,7E0,2.5608E4,6.6E2,8.1E1,2.5E2,4.83E2,1.12E2,7.6E1,5.96E2,1.8E1,6E0,4E0,8E0,1.33E2,2E0,2E1,2.2E1,2.2E1,6.4E1,7E0,3.1E1,1.3E1,4E0,3.5E1,1.8E1,4E0,1E0,7.34E2,3.2E2,2.92E2,1.02E2,2.12E2,3E1,6E0,2.7E1,4.8E1,1E1,1.5E1,9E0,2.63E2,3E0,4.2E1,8.7E1,7.2E1,1.6E1,3E0,4E0],"tree_param":{"num_deleted":"0","num_feature":"2","num_nodes":"107","size_leaf_vector":"1"}},{"base_weights":[7.04428E-3,-8.26658E0,1.0128911E-1,-4.198755E0,-2.640829E1,1.9427204E1,1.862243E-2,5.7899337E0,-1.0970946E1,-3.169485E1,8.832716E0,-6.9864945E0,3.7355762E1,-1.5298353E0,4.6834487E-1,2.8069784E1,-3.9453015E-1,-1.3515488E1,-2.4269123E0,-1.48045435E1,-2.3186993E1,3.7668307E0,5.975163E0,6.3406463E0,-1.146054E1,5.2306774E1,4.1653843E0,3.808087E-1,-3.4248934E0,5.930053E0,-5.845257E-2,1.7470129E1,2.380513E1,-9.431896E0,2.3841393E1,-1.19367485E1,-1.32459955E1,1.8389051E1,-1.5652053E1,1.3052335E0,-2.9549671E1,4.1789797E-1,3.4861176E0,-1.0871672E1,1.5456778E1,3.74039E1,6.248551E1,-1.4962691E1,1.3801689E1,-1.8760531E0,1.1490542E1,-1.2030119E1,-2.6176586E0,1.6014927E1,3.6339514E0,-7.4956946E0,2.8729025E-1,9.716772E0,-1.1015184E0,-1.0169896E0,-7.355191E0,1.9409598E0,7.774846E0,-4.3667293E0,2.9598865E-1,6.4307103E0,1.1670548E0,-7.0063396E0,3.7893984E0,2.3674421E0,-1.662616E0,-4.464556E0,-1.6459661E1,2.648729E1,1.4633074E0,1.669033E1,1.8953148E0,4.3586052E1,1.3247668E1,1.7834894E1,1.0648219E-1,1.7983204E-1,-2.2226574E0,2.0430334E0,1.0735586E1,6.552322E-1,-5.421946E0,1.0228586E0,-1.0419934E0,2.2696345E-1,1.0191569E1,-1.5957076E1,1.4635012E0,-2.6321266E0,1.7217896E0,8.3579606E-1,-2.2817108E-1],"categories":[],"categories_nodes":[],"categories_segments":[],"categories_sizes":[],"default_left":[0,0,0,0,0,0,0,0,0,0,0,0,0,0,0,0,0,0,0,0,0,0,0,0,0,0,0,0,0,0,0,0,0,0,0,0,0,0,0,0,0,0,0,0,0,